<?xml version="1.0"?>
<PMML version="4.1" xmlns="http://www.dmg.org/PMML-4_1" xmlns:xsi="http://www.w3.org/2001/XMLSchema-instance" xsi:schemaLocation="http://www.dmg.org/PMML-4_1 http://www.dmg.org/v4-1/pmml-4-1.xsd">
 <Header copyright="Copyright (c) 2017 Adrian" description="arules association rules model">
  <Extension name="user" value="Adrian" extender="Rattle/PMML"/>
  <Application name="Rattle/PMML" version="1.4"/>
  <Timestamp>2017-02-08 10:22:29</Timestamp>
 </Header>
 <DataDictionary numberOfFields="2">
  <DataField name="transaction" optype="categorical" dataType="string"/>
  <DataField name="item" optype="categorical" dataType="string"/>
 </DataDictionary>
 <AssociationModel functionName="associationRules" numberOfTransactions="1000209" numberOfItems="10226" minimumSupport="0.1" minimumConfidence="0.3" numberOfItemsets="11" numberOfRules="17">
  <MiningSchema>
   <MiningField name="transaction" usageType="group"/>
   <MiningField name="item" usageType="active"/>
  </MiningSchema>
  <Item id="1" value="UserId=1"/>
  <Item id="2" value="UserId=2"/>
  <Item id="3" value="UserId=3"/>
  <Item id="4" value="UserId=4"/>
  <Item id="5" value="UserId=5"/>
  <Item id="6" value="UserId=6"/>
  <Item id="7" value="UserId=7"/>
  <Item id="8" value="UserId=8"/>
  <Item id="9" value="UserId=9"/>
  <Item id="10" value="UserId=10"/>
  <Item id="11" value="UserId=11"/>
  <Item id="12" value="UserId=12"/>
  <Item id="13" value="UserId=13"/>
  <Item id="14" value="UserId=14"/>
  <Item id="15" value="UserId=15"/>
  <Item id="16" value="UserId=16"/>
  <Item id="17" value="UserId=17"/>
  <Item id="18" value="UserId=18"/>
  <Item id="19" value="UserId=19"/>
  <Item id="20" value="UserId=20"/>
  <Item id="21" value="UserId=21"/>
  <Item id="22" value="UserId=22"/>
  <Item id="23" value="UserId=23"/>
  <Item id="24" value="UserId=24"/>
  <Item id="25" value="UserId=25"/>
  <Item id="26" value="UserId=26"/>
  <Item id="27" value="UserId=27"/>
  <Item id="28" value="UserId=28"/>
  <Item id="29" value="UserId=29"/>
  <Item id="30" value="UserId=30"/>
  <Item id="31" value="UserId=31"/>
  <Item id="32" value="UserId=32"/>
  <Item id="33" value="UserId=33"/>
  <Item id="34" value="UserId=34"/>
  <Item id="35" value="UserId=35"/>
  <Item id="36" value="UserId=36"/>
  <Item id="37" value="UserId=37"/>
  <Item id="38" value="UserId=38"/>
  <Item id="39" value="UserId=39"/>
  <Item id="40" value="UserId=40"/>
  <Item id="41" value="UserId=41"/>
  <Item id="42" value="UserId=42"/>
  <Item id="43" value="UserId=43"/>
  <Item id="44" value="UserId=44"/>
  <Item id="45" value="UserId=45"/>
  <Item id="46" value="UserId=46"/>
  <Item id="47" value="UserId=47"/>
  <Item id="48" value="UserId=48"/>
  <Item id="49" value="UserId=49"/>
  <Item id="50" value="UserId=50"/>
  <Item id="51" value="UserId=51"/>
  <Item id="52" value="UserId=52"/>
  <Item id="53" value="UserId=53"/>
  <Item id="54" value="UserId=54"/>
  <Item id="55" value="UserId=55"/>
  <Item id="56" value="UserId=56"/>
  <Item id="57" value="UserId=57"/>
  <Item id="58" value="UserId=58"/>
  <Item id="59" value="UserId=59"/>
  <Item id="60" value="UserId=60"/>
  <Item id="61" value="UserId=61"/>
  <Item id="62" value="UserId=62"/>
  <Item id="63" value="UserId=63"/>
  <Item id="64" value="UserId=64"/>
  <Item id="65" value="UserId=65"/>
  <Item id="66" value="UserId=66"/>
  <Item id="67" value="UserId=67"/>
  <Item id="68" value="UserId=68"/>
  <Item id="69" value="UserId=69"/>
  <Item id="70" value="UserId=70"/>
  <Item id="71" value="UserId=71"/>
  <Item id="72" value="UserId=72"/>
  <Item id="73" value="UserId=73"/>
  <Item id="74" value="UserId=74"/>
  <Item id="75" value="UserId=75"/>
  <Item id="76" value="UserId=76"/>
  <Item id="77" value="UserId=77"/>
  <Item id="78" value="UserId=78"/>
  <Item id="79" value="UserId=79"/>
  <Item id="80" value="UserId=80"/>
  <Item id="81" value="UserId=81"/>
  <Item id="82" value="UserId=82"/>
  <Item id="83" value="UserId=83"/>
  <Item id="84" value="UserId=84"/>
  <Item id="85" value="UserId=85"/>
  <Item id="86" value="UserId=86"/>
  <Item id="87" value="UserId=87"/>
  <Item id="88" value="UserId=88"/>
  <Item id="89" value="UserId=89"/>
  <Item id="90" value="UserId=90"/>
  <Item id="91" value="UserId=91"/>
  <Item id="92" value="UserId=92"/>
  <Item id="93" value="UserId=93"/>
  <Item id="94" value="UserId=94"/>
  <Item id="95" value="UserId=95"/>
  <Item id="96" value="UserId=96"/>
  <Item id="97" value="UserId=97"/>
  <Item id="98" value="UserId=98"/>
  <Item id="99" value="UserId=99"/>
  <Item id="100" value="UserId=100"/>
  <Item id="101" value="UserId=101"/>
  <Item id="102" value="UserId=102"/>
  <Item id="103" value="UserId=103"/>
  <Item id="104" value="UserId=104"/>
  <Item id="105" value="UserId=105"/>
  <Item id="106" value="UserId=106"/>
  <Item id="107" value="UserId=107"/>
  <Item id="108" value="UserId=108"/>
  <Item id="109" value="UserId=109"/>
  <Item id="110" value="UserId=110"/>
  <Item id="111" value="UserId=111"/>
  <Item id="112" value="UserId=112"/>
  <Item id="113" value="UserId=113"/>
  <Item id="114" value="UserId=114"/>
  <Item id="115" value="UserId=115"/>
  <Item id="116" value="UserId=116"/>
  <Item id="117" value="UserId=117"/>
  <Item id="118" value="UserId=118"/>
  <Item id="119" value="UserId=119"/>
  <Item id="120" value="UserId=120"/>
  <Item id="121" value="UserId=121"/>
  <Item id="122" value="UserId=122"/>
  <Item id="123" value="UserId=123"/>
  <Item id="124" value="UserId=124"/>
  <Item id="125" value="UserId=125"/>
  <Item id="126" value="UserId=126"/>
  <Item id="127" value="UserId=127"/>
  <Item id="128" value="UserId=128"/>
  <Item id="129" value="UserId=129"/>
  <Item id="130" value="UserId=130"/>
  <Item id="131" value="UserId=131"/>
  <Item id="132" value="UserId=132"/>
  <Item id="133" value="UserId=133"/>
  <Item id="134" value="UserId=134"/>
  <Item id="135" value="UserId=135"/>
  <Item id="136" value="UserId=136"/>
  <Item id="137" value="UserId=137"/>
  <Item id="138" value="UserId=138"/>
  <Item id="139" value="UserId=139"/>
  <Item id="140" value="UserId=140"/>
  <Item id="141" value="UserId=141"/>
  <Item id="142" value="UserId=142"/>
  <Item id="143" value="UserId=143"/>
  <Item id="144" value="UserId=144"/>
  <Item id="145" value="UserId=145"/>
  <Item id="146" value="UserId=146"/>
  <Item id="147" value="UserId=147"/>
  <Item id="148" value="UserId=148"/>
  <Item id="149" value="UserId=149"/>
  <Item id="150" value="UserId=150"/>
  <Item id="151" value="UserId=151"/>
  <Item id="152" value="UserId=152"/>
  <Item id="153" value="UserId=153"/>
  <Item id="154" value="UserId=154"/>
  <Item id="155" value="UserId=155"/>
  <Item id="156" value="UserId=156"/>
  <Item id="157" value="UserId=157"/>
  <Item id="158" value="UserId=158"/>
  <Item id="159" value="UserId=159"/>
  <Item id="160" value="UserId=160"/>
  <Item id="161" value="UserId=161"/>
  <Item id="162" value="UserId=162"/>
  <Item id="163" value="UserId=163"/>
  <Item id="164" value="UserId=164"/>
  <Item id="165" value="UserId=165"/>
  <Item id="166" value="UserId=166"/>
  <Item id="167" value="UserId=167"/>
  <Item id="168" value="UserId=168"/>
  <Item id="169" value="UserId=169"/>
  <Item id="170" value="UserId=170"/>
  <Item id="171" value="UserId=171"/>
  <Item id="172" value="UserId=172"/>
  <Item id="173" value="UserId=173"/>
  <Item id="174" value="UserId=174"/>
  <Item id="175" value="UserId=175"/>
  <Item id="176" value="UserId=176"/>
  <Item id="177" value="UserId=177"/>
  <Item id="178" value="UserId=178"/>
  <Item id="179" value="UserId=179"/>
  <Item id="180" value="UserId=180"/>
  <Item id="181" value="UserId=181"/>
  <Item id="182" value="UserId=182"/>
  <Item id="183" value="UserId=183"/>
  <Item id="184" value="UserId=184"/>
  <Item id="185" value="UserId=185"/>
  <Item id="186" value="UserId=186"/>
  <Item id="187" value="UserId=187"/>
  <Item id="188" value="UserId=188"/>
  <Item id="189" value="UserId=189"/>
  <Item id="190" value="UserId=190"/>
  <Item id="191" value="UserId=191"/>
  <Item id="192" value="UserId=192"/>
  <Item id="193" value="UserId=193"/>
  <Item id="194" value="UserId=194"/>
  <Item id="195" value="UserId=195"/>
  <Item id="196" value="UserId=196"/>
  <Item id="197" value="UserId=197"/>
  <Item id="198" value="UserId=198"/>
  <Item id="199" value="UserId=199"/>
  <Item id="200" value="UserId=200"/>
  <Item id="201" value="UserId=201"/>
  <Item id="202" value="UserId=202"/>
  <Item id="203" value="UserId=203"/>
  <Item id="204" value="UserId=204"/>
  <Item id="205" value="UserId=205"/>
  <Item id="206" value="UserId=206"/>
  <Item id="207" value="UserId=207"/>
  <Item id="208" value="UserId=208"/>
  <Item id="209" value="UserId=209"/>
  <Item id="210" value="UserId=210"/>
  <Item id="211" value="UserId=211"/>
  <Item id="212" value="UserId=212"/>
  <Item id="213" value="UserId=213"/>
  <Item id="214" value="UserId=214"/>
  <Item id="215" value="UserId=215"/>
  <Item id="216" value="UserId=216"/>
  <Item id="217" value="UserId=217"/>
  <Item id="218" value="UserId=218"/>
  <Item id="219" value="UserId=219"/>
  <Item id="220" value="UserId=220"/>
  <Item id="221" value="UserId=221"/>
  <Item id="222" value="UserId=222"/>
  <Item id="223" value="UserId=223"/>
  <Item id="224" value="UserId=224"/>
  <Item id="225" value="UserId=225"/>
  <Item id="226" value="UserId=226"/>
  <Item id="227" value="UserId=227"/>
  <Item id="228" value="UserId=228"/>
  <Item id="229" value="UserId=229"/>
  <Item id="230" value="UserId=230"/>
  <Item id="231" value="UserId=231"/>
  <Item id="232" value="UserId=232"/>
  <Item id="233" value="UserId=233"/>
  <Item id="234" value="UserId=234"/>
  <Item id="235" value="UserId=235"/>
  <Item id="236" value="UserId=236"/>
  <Item id="237" value="UserId=237"/>
  <Item id="238" value="UserId=238"/>
  <Item id="239" value="UserId=239"/>
  <Item id="240" value="UserId=240"/>
  <Item id="241" value="UserId=241"/>
  <Item id="242" value="UserId=242"/>
  <Item id="243" value="UserId=243"/>
  <Item id="244" value="UserId=244"/>
  <Item id="245" value="UserId=245"/>
  <Item id="246" value="UserId=246"/>
  <Item id="247" value="UserId=247"/>
  <Item id="248" value="UserId=248"/>
  <Item id="249" value="UserId=249"/>
  <Item id="250" value="UserId=250"/>
  <Item id="251" value="UserId=251"/>
  <Item id="252" value="UserId=252"/>
  <Item id="253" value="UserId=253"/>
  <Item id="254" value="UserId=254"/>
  <Item id="255" value="UserId=255"/>
  <Item id="256" value="UserId=256"/>
  <Item id="257" value="UserId=257"/>
  <Item id="258" value="UserId=258"/>
  <Item id="259" value="UserId=259"/>
  <Item id="260" value="UserId=260"/>
  <Item id="261" value="UserId=261"/>
  <Item id="262" value="UserId=262"/>
  <Item id="263" value="UserId=263"/>
  <Item id="264" value="UserId=264"/>
  <Item id="265" value="UserId=265"/>
  <Item id="266" value="UserId=266"/>
  <Item id="267" value="UserId=267"/>
  <Item id="268" value="UserId=268"/>
  <Item id="269" value="UserId=269"/>
  <Item id="270" value="UserId=270"/>
  <Item id="271" value="UserId=271"/>
  <Item id="272" value="UserId=272"/>
  <Item id="273" value="UserId=273"/>
  <Item id="274" value="UserId=274"/>
  <Item id="275" value="UserId=275"/>
  <Item id="276" value="UserId=276"/>
  <Item id="277" value="UserId=277"/>
  <Item id="278" value="UserId=278"/>
  <Item id="279" value="UserId=279"/>
  <Item id="280" value="UserId=280"/>
  <Item id="281" value="UserId=281"/>
  <Item id="282" value="UserId=282"/>
  <Item id="283" value="UserId=283"/>
  <Item id="284" value="UserId=284"/>
  <Item id="285" value="UserId=285"/>
  <Item id="286" value="UserId=286"/>
  <Item id="287" value="UserId=287"/>
  <Item id="288" value="UserId=288"/>
  <Item id="289" value="UserId=289"/>
  <Item id="290" value="UserId=290"/>
  <Item id="291" value="UserId=291"/>
  <Item id="292" value="UserId=292"/>
  <Item id="293" value="UserId=293"/>
  <Item id="294" value="UserId=294"/>
  <Item id="295" value="UserId=295"/>
  <Item id="296" value="UserId=296"/>
  <Item id="297" value="UserId=297"/>
  <Item id="298" value="UserId=298"/>
  <Item id="299" value="UserId=299"/>
  <Item id="300" value="UserId=300"/>
  <Item id="301" value="UserId=301"/>
  <Item id="302" value="UserId=302"/>
  <Item id="303" value="UserId=303"/>
  <Item id="304" value="UserId=304"/>
  <Item id="305" value="UserId=305"/>
  <Item id="306" value="UserId=306"/>
  <Item id="307" value="UserId=307"/>
  <Item id="308" value="UserId=308"/>
  <Item id="309" value="UserId=309"/>
  <Item id="310" value="UserId=310"/>
  <Item id="311" value="UserId=311"/>
  <Item id="312" value="UserId=312"/>
  <Item id="313" value="UserId=313"/>
  <Item id="314" value="UserId=314"/>
  <Item id="315" value="UserId=315"/>
  <Item id="316" value="UserId=316"/>
  <Item id="317" value="UserId=317"/>
  <Item id="318" value="UserId=318"/>
  <Item id="319" value="UserId=319"/>
  <Item id="320" value="UserId=320"/>
  <Item id="321" value="UserId=321"/>
  <Item id="322" value="UserId=322"/>
  <Item id="323" value="UserId=323"/>
  <Item id="324" value="UserId=324"/>
  <Item id="325" value="UserId=325"/>
  <Item id="326" value="UserId=326"/>
  <Item id="327" value="UserId=327"/>
  <Item id="328" value="UserId=328"/>
  <Item id="329" value="UserId=329"/>
  <Item id="330" value="UserId=330"/>
  <Item id="331" value="UserId=331"/>
  <Item id="332" value="UserId=332"/>
  <Item id="333" value="UserId=333"/>
  <Item id="334" value="UserId=334"/>
  <Item id="335" value="UserId=335"/>
  <Item id="336" value="UserId=336"/>
  <Item id="337" value="UserId=337"/>
  <Item id="338" value="UserId=338"/>
  <Item id="339" value="UserId=339"/>
  <Item id="340" value="UserId=340"/>
  <Item id="341" value="UserId=341"/>
  <Item id="342" value="UserId=342"/>
  <Item id="343" value="UserId=343"/>
  <Item id="344" value="UserId=344"/>
  <Item id="345" value="UserId=345"/>
  <Item id="346" value="UserId=346"/>
  <Item id="347" value="UserId=347"/>
  <Item id="348" value="UserId=348"/>
  <Item id="349" value="UserId=349"/>
  <Item id="350" value="UserId=350"/>
  <Item id="351" value="UserId=351"/>
  <Item id="352" value="UserId=352"/>
  <Item id="353" value="UserId=353"/>
  <Item id="354" value="UserId=354"/>
  <Item id="355" value="UserId=355"/>
  <Item id="356" value="UserId=356"/>
  <Item id="357" value="UserId=357"/>
  <Item id="358" value="UserId=358"/>
  <Item id="359" value="UserId=359"/>
  <Item id="360" value="UserId=360"/>
  <Item id="361" value="UserId=361"/>
  <Item id="362" value="UserId=362"/>
  <Item id="363" value="UserId=363"/>
  <Item id="364" value="UserId=364"/>
  <Item id="365" value="UserId=365"/>
  <Item id="366" value="UserId=366"/>
  <Item id="367" value="UserId=367"/>
  <Item id="368" value="UserId=368"/>
  <Item id="369" value="UserId=369"/>
  <Item id="370" value="UserId=370"/>
  <Item id="371" value="UserId=371"/>
  <Item id="372" value="UserId=372"/>
  <Item id="373" value="UserId=373"/>
  <Item id="374" value="UserId=374"/>
  <Item id="375" value="UserId=375"/>
  <Item id="376" value="UserId=376"/>
  <Item id="377" value="UserId=377"/>
  <Item id="378" value="UserId=378"/>
  <Item id="379" value="UserId=379"/>
  <Item id="380" value="UserId=380"/>
  <Item id="381" value="UserId=381"/>
  <Item id="382" value="UserId=382"/>
  <Item id="383" value="UserId=383"/>
  <Item id="384" value="UserId=384"/>
  <Item id="385" value="UserId=385"/>
  <Item id="386" value="UserId=386"/>
  <Item id="387" value="UserId=387"/>
  <Item id="388" value="UserId=388"/>
  <Item id="389" value="UserId=389"/>
  <Item id="390" value="UserId=390"/>
  <Item id="391" value="UserId=391"/>
  <Item id="392" value="UserId=392"/>
  <Item id="393" value="UserId=393"/>
  <Item id="394" value="UserId=394"/>
  <Item id="395" value="UserId=395"/>
  <Item id="396" value="UserId=396"/>
  <Item id="397" value="UserId=397"/>
  <Item id="398" value="UserId=398"/>
  <Item id="399" value="UserId=399"/>
  <Item id="400" value="UserId=400"/>
  <Item id="401" value="UserId=401"/>
  <Item id="402" value="UserId=402"/>
  <Item id="403" value="UserId=403"/>
  <Item id="404" value="UserId=404"/>
  <Item id="405" value="UserId=405"/>
  <Item id="406" value="UserId=406"/>
  <Item id="407" value="UserId=407"/>
  <Item id="408" value="UserId=408"/>
  <Item id="409" value="UserId=409"/>
  <Item id="410" value="UserId=410"/>
  <Item id="411" value="UserId=411"/>
  <Item id="412" value="UserId=412"/>
  <Item id="413" value="UserId=413"/>
  <Item id="414" value="UserId=414"/>
  <Item id="415" value="UserId=415"/>
  <Item id="416" value="UserId=416"/>
  <Item id="417" value="UserId=417"/>
  <Item id="418" value="UserId=418"/>
  <Item id="419" value="UserId=419"/>
  <Item id="420" value="UserId=420"/>
  <Item id="421" value="UserId=421"/>
  <Item id="422" value="UserId=422"/>
  <Item id="423" value="UserId=423"/>
  <Item id="424" value="UserId=424"/>
  <Item id="425" value="UserId=425"/>
  <Item id="426" value="UserId=426"/>
  <Item id="427" value="UserId=427"/>
  <Item id="428" value="UserId=428"/>
  <Item id="429" value="UserId=429"/>
  <Item id="430" value="UserId=430"/>
  <Item id="431" value="UserId=431"/>
  <Item id="432" value="UserId=432"/>
  <Item id="433" value="UserId=433"/>
  <Item id="434" value="UserId=434"/>
  <Item id="435" value="UserId=435"/>
  <Item id="436" value="UserId=436"/>
  <Item id="437" value="UserId=437"/>
  <Item id="438" value="UserId=438"/>
  <Item id="439" value="UserId=439"/>
  <Item id="440" value="UserId=440"/>
  <Item id="441" value="UserId=441"/>
  <Item id="442" value="UserId=442"/>
  <Item id="443" value="UserId=443"/>
  <Item id="444" value="UserId=444"/>
  <Item id="445" value="UserId=445"/>
  <Item id="446" value="UserId=446"/>
  <Item id="447" value="UserId=447"/>
  <Item id="448" value="UserId=448"/>
  <Item id="449" value="UserId=449"/>
  <Item id="450" value="UserId=450"/>
  <Item id="451" value="UserId=451"/>
  <Item id="452" value="UserId=452"/>
  <Item id="453" value="UserId=453"/>
  <Item id="454" value="UserId=454"/>
  <Item id="455" value="UserId=455"/>
  <Item id="456" value="UserId=456"/>
  <Item id="457" value="UserId=457"/>
  <Item id="458" value="UserId=458"/>
  <Item id="459" value="UserId=459"/>
  <Item id="460" value="UserId=460"/>
  <Item id="461" value="UserId=461"/>
  <Item id="462" value="UserId=462"/>
  <Item id="463" value="UserId=463"/>
  <Item id="464" value="UserId=464"/>
  <Item id="465" value="UserId=465"/>
  <Item id="466" value="UserId=466"/>
  <Item id="467" value="UserId=467"/>
  <Item id="468" value="UserId=468"/>
  <Item id="469" value="UserId=469"/>
  <Item id="470" value="UserId=470"/>
  <Item id="471" value="UserId=471"/>
  <Item id="472" value="UserId=472"/>
  <Item id="473" value="UserId=473"/>
  <Item id="474" value="UserId=474"/>
  <Item id="475" value="UserId=475"/>
  <Item id="476" value="UserId=476"/>
  <Item id="477" value="UserId=477"/>
  <Item id="478" value="UserId=478"/>
  <Item id="479" value="UserId=479"/>
  <Item id="480" value="UserId=480"/>
  <Item id="481" value="UserId=481"/>
  <Item id="482" value="UserId=482"/>
  <Item id="483" value="UserId=483"/>
  <Item id="484" value="UserId=484"/>
  <Item id="485" value="UserId=485"/>
  <Item id="486" value="UserId=486"/>
  <Item id="487" value="UserId=487"/>
  <Item id="488" value="UserId=488"/>
  <Item id="489" value="UserId=489"/>
  <Item id="490" value="UserId=490"/>
  <Item id="491" value="UserId=491"/>
  <Item id="492" value="UserId=492"/>
  <Item id="493" value="UserId=493"/>
  <Item id="494" value="UserId=494"/>
  <Item id="495" value="UserId=495"/>
  <Item id="496" value="UserId=496"/>
  <Item id="497" value="UserId=497"/>
  <Item id="498" value="UserId=498"/>
  <Item id="499" value="UserId=499"/>
  <Item id="500" value="UserId=500"/>
  <Item id="501" value="UserId=501"/>
  <Item id="502" value="UserId=502"/>
  <Item id="503" value="UserId=503"/>
  <Item id="504" value="UserId=504"/>
  <Item id="505" value="UserId=505"/>
  <Item id="506" value="UserId=506"/>
  <Item id="507" value="UserId=507"/>
  <Item id="508" value="UserId=508"/>
  <Item id="509" value="UserId=509"/>
  <Item id="510" value="UserId=510"/>
  <Item id="511" value="UserId=511"/>
  <Item id="512" value="UserId=512"/>
  <Item id="513" value="UserId=513"/>
  <Item id="514" value="UserId=514"/>
  <Item id="515" value="UserId=515"/>
  <Item id="516" value="UserId=516"/>
  <Item id="517" value="UserId=517"/>
  <Item id="518" value="UserId=518"/>
  <Item id="519" value="UserId=519"/>
  <Item id="520" value="UserId=520"/>
  <Item id="521" value="UserId=521"/>
  <Item id="522" value="UserId=522"/>
  <Item id="523" value="UserId=523"/>
  <Item id="524" value="UserId=524"/>
  <Item id="525" value="UserId=525"/>
  <Item id="526" value="UserId=526"/>
  <Item id="527" value="UserId=527"/>
  <Item id="528" value="UserId=528"/>
  <Item id="529" value="UserId=529"/>
  <Item id="530" value="UserId=530"/>
  <Item id="531" value="UserId=531"/>
  <Item id="532" value="UserId=532"/>
  <Item id="533" value="UserId=533"/>
  <Item id="534" value="UserId=534"/>
  <Item id="535" value="UserId=535"/>
  <Item id="536" value="UserId=536"/>
  <Item id="537" value="UserId=537"/>
  <Item id="538" value="UserId=538"/>
  <Item id="539" value="UserId=539"/>
  <Item id="540" value="UserId=540"/>
  <Item id="541" value="UserId=541"/>
  <Item id="542" value="UserId=542"/>
  <Item id="543" value="UserId=543"/>
  <Item id="544" value="UserId=544"/>
  <Item id="545" value="UserId=545"/>
  <Item id="546" value="UserId=546"/>
  <Item id="547" value="UserId=547"/>
  <Item id="548" value="UserId=548"/>
  <Item id="549" value="UserId=549"/>
  <Item id="550" value="UserId=550"/>
  <Item id="551" value="UserId=551"/>
  <Item id="552" value="UserId=552"/>
  <Item id="553" value="UserId=553"/>
  <Item id="554" value="UserId=554"/>
  <Item id="555" value="UserId=555"/>
  <Item id="556" value="UserId=556"/>
  <Item id="557" value="UserId=557"/>
  <Item id="558" value="UserId=558"/>
  <Item id="559" value="UserId=559"/>
  <Item id="560" value="UserId=560"/>
  <Item id="561" value="UserId=561"/>
  <Item id="562" value="UserId=562"/>
  <Item id="563" value="UserId=563"/>
  <Item id="564" value="UserId=564"/>
  <Item id="565" value="UserId=565"/>
  <Item id="566" value="UserId=566"/>
  <Item id="567" value="UserId=567"/>
  <Item id="568" value="UserId=568"/>
  <Item id="569" value="UserId=569"/>
  <Item id="570" value="UserId=570"/>
  <Item id="571" value="UserId=571"/>
  <Item id="572" value="UserId=572"/>
  <Item id="573" value="UserId=573"/>
  <Item id="574" value="UserId=574"/>
  <Item id="575" value="UserId=575"/>
  <Item id="576" value="UserId=576"/>
  <Item id="577" value="UserId=577"/>
  <Item id="578" value="UserId=578"/>
  <Item id="579" value="UserId=579"/>
  <Item id="580" value="UserId=580"/>
  <Item id="581" value="UserId=581"/>
  <Item id="582" value="UserId=582"/>
  <Item id="583" value="UserId=583"/>
  <Item id="584" value="UserId=584"/>
  <Item id="585" value="UserId=585"/>
  <Item id="586" value="UserId=586"/>
  <Item id="587" value="UserId=587"/>
  <Item id="588" value="UserId=588"/>
  <Item id="589" value="UserId=589"/>
  <Item id="590" value="UserId=590"/>
  <Item id="591" value="UserId=591"/>
  <Item id="592" value="UserId=592"/>
  <Item id="593" value="UserId=593"/>
  <Item id="594" value="UserId=594"/>
  <Item id="595" value="UserId=595"/>
  <Item id="596" value="UserId=596"/>
  <Item id="597" value="UserId=597"/>
  <Item id="598" value="UserId=598"/>
  <Item id="599" value="UserId=599"/>
  <Item id="600" value="UserId=600"/>
  <Item id="601" value="UserId=601"/>
  <Item id="602" value="UserId=602"/>
  <Item id="603" value="UserId=603"/>
  <Item id="604" value="UserId=604"/>
  <Item id="605" value="UserId=605"/>
  <Item id="606" value="UserId=606"/>
  <Item id="607" value="UserId=607"/>
  <Item id="608" value="UserId=608"/>
  <Item id="609" value="UserId=609"/>
  <Item id="610" value="UserId=610"/>
  <Item id="611" value="UserId=611"/>
  <Item id="612" value="UserId=612"/>
  <Item id="613" value="UserId=613"/>
  <Item id="614" value="UserId=614"/>
  <Item id="615" value="UserId=615"/>
  <Item id="616" value="UserId=616"/>
  <Item id="617" value="UserId=617"/>
  <Item id="618" value="UserId=618"/>
  <Item id="619" value="UserId=619"/>
  <Item id="620" value="UserId=620"/>
  <Item id="621" value="UserId=621"/>
  <Item id="622" value="UserId=622"/>
  <Item id="623" value="UserId=623"/>
  <Item id="624" value="UserId=624"/>
  <Item id="625" value="UserId=625"/>
  <Item id="626" value="UserId=626"/>
  <Item id="627" value="UserId=627"/>
  <Item id="628" value="UserId=628"/>
  <Item id="629" value="UserId=629"/>
  <Item id="630" value="UserId=630"/>
  <Item id="631" value="UserId=631"/>
  <Item id="632" value="UserId=632"/>
  <Item id="633" value="UserId=633"/>
  <Item id="634" value="UserId=634"/>
  <Item id="635" value="UserId=635"/>
  <Item id="636" value="UserId=636"/>
  <Item id="637" value="UserId=637"/>
  <Item id="638" value="UserId=638"/>
  <Item id="639" value="UserId=639"/>
  <Item id="640" value="UserId=640"/>
  <Item id="641" value="UserId=641"/>
  <Item id="642" value="UserId=642"/>
  <Item id="643" value="UserId=643"/>
  <Item id="644" value="UserId=644"/>
  <Item id="645" value="UserId=645"/>
  <Item id="646" value="UserId=646"/>
  <Item id="647" value="UserId=647"/>
  <Item id="648" value="UserId=648"/>
  <Item id="649" value="UserId=649"/>
  <Item id="650" value="UserId=650"/>
  <Item id="651" value="UserId=651"/>
  <Item id="652" value="UserId=652"/>
  <Item id="653" value="UserId=653"/>
  <Item id="654" value="UserId=654"/>
  <Item id="655" value="UserId=655"/>
  <Item id="656" value="UserId=656"/>
  <Item id="657" value="UserId=657"/>
  <Item id="658" value="UserId=658"/>
  <Item id="659" value="UserId=659"/>
  <Item id="660" value="UserId=660"/>
  <Item id="661" value="UserId=661"/>
  <Item id="662" value="UserId=662"/>
  <Item id="663" value="UserId=663"/>
  <Item id="664" value="UserId=664"/>
  <Item id="665" value="UserId=665"/>
  <Item id="666" value="UserId=666"/>
  <Item id="667" value="UserId=667"/>
  <Item id="668" value="UserId=668"/>
  <Item id="669" value="UserId=669"/>
  <Item id="670" value="UserId=670"/>
  <Item id="671" value="UserId=671"/>
  <Item id="672" value="UserId=672"/>
  <Item id="673" value="UserId=673"/>
  <Item id="674" value="UserId=674"/>
  <Item id="675" value="UserId=675"/>
  <Item id="676" value="UserId=676"/>
  <Item id="677" value="UserId=677"/>
  <Item id="678" value="UserId=678"/>
  <Item id="679" value="UserId=679"/>
  <Item id="680" value="UserId=680"/>
  <Item id="681" value="UserId=681"/>
  <Item id="682" value="UserId=682"/>
  <Item id="683" value="UserId=683"/>
  <Item id="684" value="UserId=684"/>
  <Item id="685" value="UserId=685"/>
  <Item id="686" value="UserId=686"/>
  <Item id="687" value="UserId=687"/>
  <Item id="688" value="UserId=688"/>
  <Item id="689" value="UserId=689"/>
  <Item id="690" value="UserId=690"/>
  <Item id="691" value="UserId=691"/>
  <Item id="692" value="UserId=692"/>
  <Item id="693" value="UserId=693"/>
  <Item id="694" value="UserId=694"/>
  <Item id="695" value="UserId=695"/>
  <Item id="696" value="UserId=696"/>
  <Item id="697" value="UserId=697"/>
  <Item id="698" value="UserId=698"/>
  <Item id="699" value="UserId=699"/>
  <Item id="700" value="UserId=700"/>
  <Item id="701" value="UserId=701"/>
  <Item id="702" value="UserId=702"/>
  <Item id="703" value="UserId=703"/>
  <Item id="704" value="UserId=704"/>
  <Item id="705" value="UserId=705"/>
  <Item id="706" value="UserId=706"/>
  <Item id="707" value="UserId=707"/>
  <Item id="708" value="UserId=708"/>
  <Item id="709" value="UserId=709"/>
  <Item id="710" value="UserId=710"/>
  <Item id="711" value="UserId=711"/>
  <Item id="712" value="UserId=712"/>
  <Item id="713" value="UserId=713"/>
  <Item id="714" value="UserId=714"/>
  <Item id="715" value="UserId=715"/>
  <Item id="716" value="UserId=716"/>
  <Item id="717" value="UserId=717"/>
  <Item id="718" value="UserId=718"/>
  <Item id="719" value="UserId=719"/>
  <Item id="720" value="UserId=720"/>
  <Item id="721" value="UserId=721"/>
  <Item id="722" value="UserId=722"/>
  <Item id="723" value="UserId=723"/>
  <Item id="724" value="UserId=724"/>
  <Item id="725" value="UserId=725"/>
  <Item id="726" value="UserId=726"/>
  <Item id="727" value="UserId=727"/>
  <Item id="728" value="UserId=728"/>
  <Item id="729" value="UserId=729"/>
  <Item id="730" value="UserId=730"/>
  <Item id="731" value="UserId=731"/>
  <Item id="732" value="UserId=732"/>
  <Item id="733" value="UserId=733"/>
  <Item id="734" value="UserId=734"/>
  <Item id="735" value="UserId=735"/>
  <Item id="736" value="UserId=736"/>
  <Item id="737" value="UserId=737"/>
  <Item id="738" value="UserId=738"/>
  <Item id="739" value="UserId=739"/>
  <Item id="740" value="UserId=740"/>
  <Item id="741" value="UserId=741"/>
  <Item id="742" value="UserId=742"/>
  <Item id="743" value="UserId=743"/>
  <Item id="744" value="UserId=744"/>
  <Item id="745" value="UserId=745"/>
  <Item id="746" value="UserId=746"/>
  <Item id="747" value="UserId=747"/>
  <Item id="748" value="UserId=748"/>
  <Item id="749" value="UserId=749"/>
  <Item id="750" value="UserId=750"/>
  <Item id="751" value="UserId=751"/>
  <Item id="752" value="UserId=752"/>
  <Item id="753" value="UserId=753"/>
  <Item id="754" value="UserId=754"/>
  <Item id="755" value="UserId=755"/>
  <Item id="756" value="UserId=756"/>
  <Item id="757" value="UserId=757"/>
  <Item id="758" value="UserId=758"/>
  <Item id="759" value="UserId=759"/>
  <Item id="760" value="UserId=760"/>
  <Item id="761" value="UserId=761"/>
  <Item id="762" value="UserId=762"/>
  <Item id="763" value="UserId=763"/>
  <Item id="764" value="UserId=764"/>
  <Item id="765" value="UserId=765"/>
  <Item id="766" value="UserId=766"/>
  <Item id="767" value="UserId=767"/>
  <Item id="768" value="UserId=768"/>
  <Item id="769" value="UserId=769"/>
  <Item id="770" value="UserId=770"/>
  <Item id="771" value="UserId=771"/>
  <Item id="772" value="UserId=772"/>
  <Item id="773" value="UserId=773"/>
  <Item id="774" value="UserId=774"/>
  <Item id="775" value="UserId=775"/>
  <Item id="776" value="UserId=776"/>
  <Item id="777" value="UserId=777"/>
  <Item id="778" value="UserId=778"/>
  <Item id="779" value="UserId=779"/>
  <Item id="780" value="UserId=780"/>
  <Item id="781" value="UserId=781"/>
  <Item id="782" value="UserId=782"/>
  <Item id="783" value="UserId=783"/>
  <Item id="784" value="UserId=784"/>
  <Item id="785" value="UserId=785"/>
  <Item id="786" value="UserId=786"/>
  <Item id="787" value="UserId=787"/>
  <Item id="788" value="UserId=788"/>
  <Item id="789" value="UserId=789"/>
  <Item id="790" value="UserId=790"/>
  <Item id="791" value="UserId=791"/>
  <Item id="792" value="UserId=792"/>
  <Item id="793" value="UserId=793"/>
  <Item id="794" value="UserId=794"/>
  <Item id="795" value="UserId=795"/>
  <Item id="796" value="UserId=796"/>
  <Item id="797" value="UserId=797"/>
  <Item id="798" value="UserId=798"/>
  <Item id="799" value="UserId=799"/>
  <Item id="800" value="UserId=800"/>
  <Item id="801" value="UserId=801"/>
  <Item id="802" value="UserId=802"/>
  <Item id="803" value="UserId=803"/>
  <Item id="804" value="UserId=804"/>
  <Item id="805" value="UserId=805"/>
  <Item id="806" value="UserId=806"/>
  <Item id="807" value="UserId=807"/>
  <Item id="808" value="UserId=808"/>
  <Item id="809" value="UserId=809"/>
  <Item id="810" value="UserId=810"/>
  <Item id="811" value="UserId=811"/>
  <Item id="812" value="UserId=812"/>
  <Item id="813" value="UserId=813"/>
  <Item id="814" value="UserId=814"/>
  <Item id="815" value="UserId=815"/>
  <Item id="816" value="UserId=816"/>
  <Item id="817" value="UserId=817"/>
  <Item id="818" value="UserId=818"/>
  <Item id="819" value="UserId=819"/>
  <Item id="820" value="UserId=820"/>
  <Item id="821" value="UserId=821"/>
  <Item id="822" value="UserId=822"/>
  <Item id="823" value="UserId=823"/>
  <Item id="824" value="UserId=824"/>
  <Item id="825" value="UserId=825"/>
  <Item id="826" value="UserId=826"/>
  <Item id="827" value="UserId=827"/>
  <Item id="828" value="UserId=828"/>
  <Item id="829" value="UserId=829"/>
  <Item id="830" value="UserId=830"/>
  <Item id="831" value="UserId=831"/>
  <Item id="832" value="UserId=832"/>
  <Item id="833" value="UserId=833"/>
  <Item id="834" value="UserId=834"/>
  <Item id="835" value="UserId=835"/>
  <Item id="836" value="UserId=836"/>
  <Item id="837" value="UserId=837"/>
  <Item id="838" value="UserId=838"/>
  <Item id="839" value="UserId=839"/>
  <Item id="840" value="UserId=840"/>
  <Item id="841" value="UserId=841"/>
  <Item id="842" value="UserId=842"/>
  <Item id="843" value="UserId=843"/>
  <Item id="844" value="UserId=844"/>
  <Item id="845" value="UserId=845"/>
  <Item id="846" value="UserId=846"/>
  <Item id="847" value="UserId=847"/>
  <Item id="848" value="UserId=848"/>
  <Item id="849" value="UserId=849"/>
  <Item id="850" value="UserId=850"/>
  <Item id="851" value="UserId=851"/>
  <Item id="852" value="UserId=852"/>
  <Item id="853" value="UserId=853"/>
  <Item id="854" value="UserId=854"/>
  <Item id="855" value="UserId=855"/>
  <Item id="856" value="UserId=856"/>
  <Item id="857" value="UserId=857"/>
  <Item id="858" value="UserId=858"/>
  <Item id="859" value="UserId=859"/>
  <Item id="860" value="UserId=860"/>
  <Item id="861" value="UserId=861"/>
  <Item id="862" value="UserId=862"/>
  <Item id="863" value="UserId=863"/>
  <Item id="864" value="UserId=864"/>
  <Item id="865" value="UserId=865"/>
  <Item id="866" value="UserId=866"/>
  <Item id="867" value="UserId=867"/>
  <Item id="868" value="UserId=868"/>
  <Item id="869" value="UserId=869"/>
  <Item id="870" value="UserId=870"/>
  <Item id="871" value="UserId=871"/>
  <Item id="872" value="UserId=872"/>
  <Item id="873" value="UserId=873"/>
  <Item id="874" value="UserId=874"/>
  <Item id="875" value="UserId=875"/>
  <Item id="876" value="UserId=876"/>
  <Item id="877" value="UserId=877"/>
  <Item id="878" value="UserId=878"/>
  <Item id="879" value="UserId=879"/>
  <Item id="880" value="UserId=880"/>
  <Item id="881" value="UserId=881"/>
  <Item id="882" value="UserId=882"/>
  <Item id="883" value="UserId=883"/>
  <Item id="884" value="UserId=884"/>
  <Item id="885" value="UserId=885"/>
  <Item id="886" value="UserId=886"/>
  <Item id="887" value="UserId=887"/>
  <Item id="888" value="UserId=888"/>
  <Item id="889" value="UserId=889"/>
  <Item id="890" value="UserId=890"/>
  <Item id="891" value="UserId=891"/>
  <Item id="892" value="UserId=892"/>
  <Item id="893" value="UserId=893"/>
  <Item id="894" value="UserId=894"/>
  <Item id="895" value="UserId=895"/>
  <Item id="896" value="UserId=896"/>
  <Item id="897" value="UserId=897"/>
  <Item id="898" value="UserId=898"/>
  <Item id="899" value="UserId=899"/>
  <Item id="900" value="UserId=900"/>
  <Item id="901" value="UserId=901"/>
  <Item id="902" value="UserId=902"/>
  <Item id="903" value="UserId=903"/>
  <Item id="904" value="UserId=904"/>
  <Item id="905" value="UserId=905"/>
  <Item id="906" value="UserId=906"/>
  <Item id="907" value="UserId=907"/>
  <Item id="908" value="UserId=908"/>
  <Item id="909" value="UserId=909"/>
  <Item id="910" value="UserId=910"/>
  <Item id="911" value="UserId=911"/>
  <Item id="912" value="UserId=912"/>
  <Item id="913" value="UserId=913"/>
  <Item id="914" value="UserId=914"/>
  <Item id="915" value="UserId=915"/>
  <Item id="916" value="UserId=916"/>
  <Item id="917" value="UserId=917"/>
  <Item id="918" value="UserId=918"/>
  <Item id="919" value="UserId=919"/>
  <Item id="920" value="UserId=920"/>
  <Item id="921" value="UserId=921"/>
  <Item id="922" value="UserId=922"/>
  <Item id="923" value="UserId=923"/>
  <Item id="924" value="UserId=924"/>
  <Item id="925" value="UserId=925"/>
  <Item id="926" value="UserId=926"/>
  <Item id="927" value="UserId=927"/>
  <Item id="928" value="UserId=928"/>
  <Item id="929" value="UserId=929"/>
  <Item id="930" value="UserId=930"/>
  <Item id="931" value="UserId=931"/>
  <Item id="932" value="UserId=932"/>
  <Item id="933" value="UserId=933"/>
  <Item id="934" value="UserId=934"/>
  <Item id="935" value="UserId=935"/>
  <Item id="936" value="UserId=936"/>
  <Item id="937" value="UserId=937"/>
  <Item id="938" value="UserId=938"/>
  <Item id="939" value="UserId=939"/>
  <Item id="940" value="UserId=940"/>
  <Item id="941" value="UserId=941"/>
  <Item id="942" value="UserId=942"/>
  <Item id="943" value="UserId=943"/>
  <Item id="944" value="UserId=944"/>
  <Item id="945" value="UserId=945"/>
  <Item id="946" value="UserId=946"/>
  <Item id="947" value="UserId=947"/>
  <Item id="948" value="UserId=948"/>
  <Item id="949" value="UserId=949"/>
  <Item id="950" value="UserId=950"/>
  <Item id="951" value="UserId=951"/>
  <Item id="952" value="UserId=952"/>
  <Item id="953" value="UserId=953"/>
  <Item id="954" value="UserId=954"/>
  <Item id="955" value="UserId=955"/>
  <Item id="956" value="UserId=956"/>
  <Item id="957" value="UserId=957"/>
  <Item id="958" value="UserId=958"/>
  <Item id="959" value="UserId=959"/>
  <Item id="960" value="UserId=960"/>
  <Item id="961" value="UserId=961"/>
  <Item id="962" value="UserId=962"/>
  <Item id="963" value="UserId=963"/>
  <Item id="964" value="UserId=964"/>
  <Item id="965" value="UserId=965"/>
  <Item id="966" value="UserId=966"/>
  <Item id="967" value="UserId=967"/>
  <Item id="968" value="UserId=968"/>
  <Item id="969" value="UserId=969"/>
  <Item id="970" value="UserId=970"/>
  <Item id="971" value="UserId=971"/>
  <Item id="972" value="UserId=972"/>
  <Item id="973" value="UserId=973"/>
  <Item id="974" value="UserId=974"/>
  <Item id="975" value="UserId=975"/>
  <Item id="976" value="UserId=976"/>
  <Item id="977" value="UserId=977"/>
  <Item id="978" value="UserId=978"/>
  <Item id="979" value="UserId=979"/>
  <Item id="980" value="UserId=980"/>
  <Item id="981" value="UserId=981"/>
  <Item id="982" value="UserId=982"/>
  <Item id="983" value="UserId=983"/>
  <Item id="984" value="UserId=984"/>
  <Item id="985" value="UserId=985"/>
  <Item id="986" value="UserId=986"/>
  <Item id="987" value="UserId=987"/>
  <Item id="988" value="UserId=988"/>
  <Item id="989" value="UserId=989"/>
  <Item id="990" value="UserId=990"/>
  <Item id="991" value="UserId=991"/>
  <Item id="992" value="UserId=992"/>
  <Item id="993" value="UserId=993"/>
  <Item id="994" value="UserId=994"/>
  <Item id="995" value="UserId=995"/>
  <Item id="996" value="UserId=996"/>
  <Item id="997" value="UserId=997"/>
  <Item id="998" value="UserId=998"/>
  <Item id="999" value="UserId=999"/>
  <Item id="1000" value="UserId=1000"/>
  <Item id="1001" value="UserId=1001"/>
  <Item id="1002" value="UserId=1002"/>
  <Item id="1003" value="UserId=1003"/>
  <Item id="1004" value="UserId=1004"/>
  <Item id="1005" value="UserId=1005"/>
  <Item id="1006" value="UserId=1006"/>
  <Item id="1007" value="UserId=1007"/>
  <Item id="1008" value="UserId=1008"/>
  <Item id="1009" value="UserId=1009"/>
  <Item id="1010" value="UserId=1010"/>
  <Item id="1011" value="UserId=1011"/>
  <Item id="1012" value="UserId=1012"/>
  <Item id="1013" value="UserId=1013"/>
  <Item id="1014" value="UserId=1014"/>
  <Item id="1015" value="UserId=1015"/>
  <Item id="1016" value="UserId=1016"/>
  <Item id="1017" value="UserId=1017"/>
  <Item id="1018" value="UserId=1018"/>
  <Item id="1019" value="UserId=1019"/>
  <Item id="1020" value="UserId=1020"/>
  <Item id="1021" value="UserId=1021"/>
  <Item id="1022" value="UserId=1022"/>
  <Item id="1023" value="UserId=1023"/>
  <Item id="1024" value="UserId=1024"/>
  <Item id="1025" value="UserId=1025"/>
  <Item id="1026" value="UserId=1026"/>
  <Item id="1027" value="UserId=1027"/>
  <Item id="1028" value="UserId=1028"/>
  <Item id="1029" value="UserId=1029"/>
  <Item id="1030" value="UserId=1030"/>
  <Item id="1031" value="UserId=1031"/>
  <Item id="1032" value="UserId=1032"/>
  <Item id="1033" value="UserId=1033"/>
  <Item id="1034" value="UserId=1034"/>
  <Item id="1035" value="UserId=1035"/>
  <Item id="1036" value="UserId=1036"/>
  <Item id="1037" value="UserId=1037"/>
  <Item id="1038" value="UserId=1038"/>
  <Item id="1039" value="UserId=1039"/>
  <Item id="1040" value="UserId=1040"/>
  <Item id="1041" value="UserId=1041"/>
  <Item id="1042" value="UserId=1042"/>
  <Item id="1043" value="UserId=1043"/>
  <Item id="1044" value="UserId=1044"/>
  <Item id="1045" value="UserId=1045"/>
  <Item id="1046" value="UserId=1046"/>
  <Item id="1047" value="UserId=1047"/>
  <Item id="1048" value="UserId=1048"/>
  <Item id="1049" value="UserId=1049"/>
  <Item id="1050" value="UserId=1050"/>
  <Item id="1051" value="UserId=1051"/>
  <Item id="1052" value="UserId=1052"/>
  <Item id="1053" value="UserId=1053"/>
  <Item id="1054" value="UserId=1054"/>
  <Item id="1055" value="UserId=1055"/>
  <Item id="1056" value="UserId=1056"/>
  <Item id="1057" value="UserId=1057"/>
  <Item id="1058" value="UserId=1058"/>
  <Item id="1059" value="UserId=1059"/>
  <Item id="1060" value="UserId=1060"/>
  <Item id="1061" value="UserId=1061"/>
  <Item id="1062" value="UserId=1062"/>
  <Item id="1063" value="UserId=1063"/>
  <Item id="1064" value="UserId=1064"/>
  <Item id="1065" value="UserId=1065"/>
  <Item id="1066" value="UserId=1066"/>
  <Item id="1067" value="UserId=1067"/>
  <Item id="1068" value="UserId=1068"/>
  <Item id="1069" value="UserId=1069"/>
  <Item id="1070" value="UserId=1070"/>
  <Item id="1071" value="UserId=1071"/>
  <Item id="1072" value="UserId=1072"/>
  <Item id="1073" value="UserId=1073"/>
  <Item id="1074" value="UserId=1074"/>
  <Item id="1075" value="UserId=1075"/>
  <Item id="1076" value="UserId=1076"/>
  <Item id="1077" value="UserId=1077"/>
  <Item id="1078" value="UserId=1078"/>
  <Item id="1079" value="UserId=1079"/>
  <Item id="1080" value="UserId=1080"/>
  <Item id="1081" value="UserId=1081"/>
  <Item id="1082" value="UserId=1082"/>
  <Item id="1083" value="UserId=1083"/>
  <Item id="1084" value="UserId=1084"/>
  <Item id="1085" value="UserId=1085"/>
  <Item id="1086" value="UserId=1086"/>
  <Item id="1087" value="UserId=1087"/>
  <Item id="1088" value="UserId=1088"/>
  <Item id="1089" value="UserId=1089"/>
  <Item id="1090" value="UserId=1090"/>
  <Item id="1091" value="UserId=1091"/>
  <Item id="1092" value="UserId=1092"/>
  <Item id="1093" value="UserId=1093"/>
  <Item id="1094" value="UserId=1094"/>
  <Item id="1095" value="UserId=1095"/>
  <Item id="1096" value="UserId=1096"/>
  <Item id="1097" value="UserId=1097"/>
  <Item id="1098" value="UserId=1098"/>
  <Item id="1099" value="UserId=1099"/>
  <Item id="1100" value="UserId=1100"/>
  <Item id="1101" value="UserId=1101"/>
  <Item id="1102" value="UserId=1102"/>
  <Item id="1103" value="UserId=1103"/>
  <Item id="1104" value="UserId=1104"/>
  <Item id="1105" value="UserId=1105"/>
  <Item id="1106" value="UserId=1106"/>
  <Item id="1107" value="UserId=1107"/>
  <Item id="1108" value="UserId=1108"/>
  <Item id="1109" value="UserId=1109"/>
  <Item id="1110" value="UserId=1110"/>
  <Item id="1111" value="UserId=1111"/>
  <Item id="1112" value="UserId=1112"/>
  <Item id="1113" value="UserId=1113"/>
  <Item id="1114" value="UserId=1114"/>
  <Item id="1115" value="UserId=1115"/>
  <Item id="1116" value="UserId=1116"/>
  <Item id="1117" value="UserId=1117"/>
  <Item id="1118" value="UserId=1118"/>
  <Item id="1119" value="UserId=1119"/>
  <Item id="1120" value="UserId=1120"/>
  <Item id="1121" value="UserId=1121"/>
  <Item id="1122" value="UserId=1122"/>
  <Item id="1123" value="UserId=1123"/>
  <Item id="1124" value="UserId=1124"/>
  <Item id="1125" value="UserId=1125"/>
  <Item id="1126" value="UserId=1126"/>
  <Item id="1127" value="UserId=1127"/>
  <Item id="1128" value="UserId=1128"/>
  <Item id="1129" value="UserId=1129"/>
  <Item id="1130" value="UserId=1130"/>
  <Item id="1131" value="UserId=1131"/>
  <Item id="1132" value="UserId=1132"/>
  <Item id="1133" value="UserId=1133"/>
  <Item id="1134" value="UserId=1134"/>
  <Item id="1135" value="UserId=1135"/>
  <Item id="1136" value="UserId=1136"/>
  <Item id="1137" value="UserId=1137"/>
  <Item id="1138" value="UserId=1138"/>
  <Item id="1139" value="UserId=1139"/>
  <Item id="1140" value="UserId=1140"/>
  <Item id="1141" value="UserId=1141"/>
  <Item id="1142" value="UserId=1142"/>
  <Item id="1143" value="UserId=1143"/>
  <Item id="1144" value="UserId=1144"/>
  <Item id="1145" value="UserId=1145"/>
  <Item id="1146" value="UserId=1146"/>
  <Item id="1147" value="UserId=1147"/>
  <Item id="1148" value="UserId=1148"/>
  <Item id="1149" value="UserId=1149"/>
  <Item id="1150" value="UserId=1150"/>
  <Item id="1151" value="UserId=1151"/>
  <Item id="1152" value="UserId=1152"/>
  <Item id="1153" value="UserId=1153"/>
  <Item id="1154" value="UserId=1154"/>
  <Item id="1155" value="UserId=1155"/>
  <Item id="1156" value="UserId=1156"/>
  <Item id="1157" value="UserId=1157"/>
  <Item id="1158" value="UserId=1158"/>
  <Item id="1159" value="UserId=1159"/>
  <Item id="1160" value="UserId=1160"/>
  <Item id="1161" value="UserId=1161"/>
  <Item id="1162" value="UserId=1162"/>
  <Item id="1163" value="UserId=1163"/>
  <Item id="1164" value="UserId=1164"/>
  <Item id="1165" value="UserId=1165"/>
  <Item id="1166" value="UserId=1166"/>
  <Item id="1167" value="UserId=1167"/>
  <Item id="1168" value="UserId=1168"/>
  <Item id="1169" value="UserId=1169"/>
  <Item id="1170" value="UserId=1170"/>
  <Item id="1171" value="UserId=1171"/>
  <Item id="1172" value="UserId=1172"/>
  <Item id="1173" value="UserId=1173"/>
  <Item id="1174" value="UserId=1174"/>
  <Item id="1175" value="UserId=1175"/>
  <Item id="1176" value="UserId=1176"/>
  <Item id="1177" value="UserId=1177"/>
  <Item id="1178" value="UserId=1178"/>
  <Item id="1179" value="UserId=1179"/>
  <Item id="1180" value="UserId=1180"/>
  <Item id="1181" value="UserId=1181"/>
  <Item id="1182" value="UserId=1182"/>
  <Item id="1183" value="UserId=1183"/>
  <Item id="1184" value="UserId=1184"/>
  <Item id="1185" value="UserId=1185"/>
  <Item id="1186" value="UserId=1186"/>
  <Item id="1187" value="UserId=1187"/>
  <Item id="1188" value="UserId=1188"/>
  <Item id="1189" value="UserId=1189"/>
  <Item id="1190" value="UserId=1190"/>
  <Item id="1191" value="UserId=1191"/>
  <Item id="1192" value="UserId=1192"/>
  <Item id="1193" value="UserId=1193"/>
  <Item id="1194" value="UserId=1194"/>
  <Item id="1195" value="UserId=1195"/>
  <Item id="1196" value="UserId=1196"/>
  <Item id="1197" value="UserId=1197"/>
  <Item id="1198" value="UserId=1198"/>
  <Item id="1199" value="UserId=1199"/>
  <Item id="1200" value="UserId=1200"/>
  <Item id="1201" value="UserId=1201"/>
  <Item id="1202" value="UserId=1202"/>
  <Item id="1203" value="UserId=1203"/>
  <Item id="1204" value="UserId=1204"/>
  <Item id="1205" value="UserId=1205"/>
  <Item id="1206" value="UserId=1206"/>
  <Item id="1207" value="UserId=1207"/>
  <Item id="1208" value="UserId=1208"/>
  <Item id="1209" value="UserId=1209"/>
  <Item id="1210" value="UserId=1210"/>
  <Item id="1211" value="UserId=1211"/>
  <Item id="1212" value="UserId=1212"/>
  <Item id="1213" value="UserId=1213"/>
  <Item id="1214" value="UserId=1214"/>
  <Item id="1215" value="UserId=1215"/>
  <Item id="1216" value="UserId=1216"/>
  <Item id="1217" value="UserId=1217"/>
  <Item id="1218" value="UserId=1218"/>
  <Item id="1219" value="UserId=1219"/>
  <Item id="1220" value="UserId=1220"/>
  <Item id="1221" value="UserId=1221"/>
  <Item id="1222" value="UserId=1222"/>
  <Item id="1223" value="UserId=1223"/>
  <Item id="1224" value="UserId=1224"/>
  <Item id="1225" value="UserId=1225"/>
  <Item id="1226" value="UserId=1226"/>
  <Item id="1227" value="UserId=1227"/>
  <Item id="1228" value="UserId=1228"/>
  <Item id="1229" value="UserId=1229"/>
  <Item id="1230" value="UserId=1230"/>
  <Item id="1231" value="UserId=1231"/>
  <Item id="1232" value="UserId=1232"/>
  <Item id="1233" value="UserId=1233"/>
  <Item id="1234" value="UserId=1234"/>
  <Item id="1235" value="UserId=1235"/>
  <Item id="1236" value="UserId=1236"/>
  <Item id="1237" value="UserId=1237"/>
  <Item id="1238" value="UserId=1238"/>
  <Item id="1239" value="UserId=1239"/>
  <Item id="1240" value="UserId=1240"/>
  <Item id="1241" value="UserId=1241"/>
  <Item id="1242" value="UserId=1242"/>
  <Item id="1243" value="UserId=1243"/>
  <Item id="1244" value="UserId=1244"/>
  <Item id="1245" value="UserId=1245"/>
  <Item id="1246" value="UserId=1246"/>
  <Item id="1247" value="UserId=1247"/>
  <Item id="1248" value="UserId=1248"/>
  <Item id="1249" value="UserId=1249"/>
  <Item id="1250" value="UserId=1250"/>
  <Item id="1251" value="UserId=1251"/>
  <Item id="1252" value="UserId=1252"/>
  <Item id="1253" value="UserId=1253"/>
  <Item id="1254" value="UserId=1254"/>
  <Item id="1255" value="UserId=1255"/>
  <Item id="1256" value="UserId=1256"/>
  <Item id="1257" value="UserId=1257"/>
  <Item id="1258" value="UserId=1258"/>
  <Item id="1259" value="UserId=1259"/>
  <Item id="1260" value="UserId=1260"/>
  <Item id="1261" value="UserId=1261"/>
  <Item id="1262" value="UserId=1262"/>
  <Item id="1263" value="UserId=1263"/>
  <Item id="1264" value="UserId=1264"/>
  <Item id="1265" value="UserId=1265"/>
  <Item id="1266" value="UserId=1266"/>
  <Item id="1267" value="UserId=1267"/>
  <Item id="1268" value="UserId=1268"/>
  <Item id="1269" value="UserId=1269"/>
  <Item id="1270" value="UserId=1270"/>
  <Item id="1271" value="UserId=1271"/>
  <Item id="1272" value="UserId=1272"/>
  <Item id="1273" value="UserId=1273"/>
  <Item id="1274" value="UserId=1274"/>
  <Item id="1275" value="UserId=1275"/>
  <Item id="1276" value="UserId=1276"/>
  <Item id="1277" value="UserId=1277"/>
  <Item id="1278" value="UserId=1278"/>
  <Item id="1279" value="UserId=1279"/>
  <Item id="1280" value="UserId=1280"/>
  <Item id="1281" value="UserId=1281"/>
  <Item id="1282" value="UserId=1282"/>
  <Item id="1283" value="UserId=1283"/>
  <Item id="1284" value="UserId=1284"/>
  <Item id="1285" value="UserId=1285"/>
  <Item id="1286" value="UserId=1286"/>
  <Item id="1287" value="UserId=1287"/>
  <Item id="1288" value="UserId=1288"/>
  <Item id="1289" value="UserId=1289"/>
  <Item id="1290" value="UserId=1290"/>
  <Item id="1291" value="UserId=1291"/>
  <Item id="1292" value="UserId=1292"/>
  <Item id="1293" value="UserId=1293"/>
  <Item id="1294" value="UserId=1294"/>
  <Item id="1295" value="UserId=1295"/>
  <Item id="1296" value="UserId=1296"/>
  <Item id="1297" value="UserId=1297"/>
  <Item id="1298" value="UserId=1298"/>
  <Item id="1299" value="UserId=1299"/>
  <Item id="1300" value="UserId=1300"/>
  <Item id="1301" value="UserId=1301"/>
  <Item id="1302" value="UserId=1302"/>
  <Item id="1303" value="UserId=1303"/>
  <Item id="1304" value="UserId=1304"/>
  <Item id="1305" value="UserId=1305"/>
  <Item id="1306" value="UserId=1306"/>
  <Item id="1307" value="UserId=1307"/>
  <Item id="1308" value="UserId=1308"/>
  <Item id="1309" value="UserId=1309"/>
  <Item id="1310" value="UserId=1310"/>
  <Item id="1311" value="UserId=1311"/>
  <Item id="1312" value="UserId=1312"/>
  <Item id="1313" value="UserId=1313"/>
  <Item id="1314" value="UserId=1314"/>
  <Item id="1315" value="UserId=1315"/>
  <Item id="1316" value="UserId=1316"/>
  <Item id="1317" value="UserId=1317"/>
  <Item id="1318" value="UserId=1318"/>
  <Item id="1319" value="UserId=1319"/>
  <Item id="1320" value="UserId=1320"/>
  <Item id="1321" value="UserId=1321"/>
  <Item id="1322" value="UserId=1322"/>
  <Item id="1323" value="UserId=1323"/>
  <Item id="1324" value="UserId=1324"/>
  <Item id="1325" value="UserId=1325"/>
  <Item id="1326" value="UserId=1326"/>
  <Item id="1327" value="UserId=1327"/>
  <Item id="1328" value="UserId=1328"/>
  <Item id="1329" value="UserId=1329"/>
  <Item id="1330" value="UserId=1330"/>
  <Item id="1331" value="UserId=1331"/>
  <Item id="1332" value="UserId=1332"/>
  <Item id="1333" value="UserId=1333"/>
  <Item id="1334" value="UserId=1334"/>
  <Item id="1335" value="UserId=1335"/>
  <Item id="1336" value="UserId=1336"/>
  <Item id="1337" value="UserId=1337"/>
  <Item id="1338" value="UserId=1338"/>
  <Item id="1339" value="UserId=1339"/>
  <Item id="1340" value="UserId=1340"/>
  <Item id="1341" value="UserId=1341"/>
  <Item id="1342" value="UserId=1342"/>
  <Item id="1343" value="UserId=1343"/>
  <Item id="1344" value="UserId=1344"/>
  <Item id="1345" value="UserId=1345"/>
  <Item id="1346" value="UserId=1346"/>
  <Item id="1347" value="UserId=1347"/>
  <Item id="1348" value="UserId=1348"/>
  <Item id="1349" value="UserId=1349"/>
  <Item id="1350" value="UserId=1350"/>
  <Item id="1351" value="UserId=1351"/>
  <Item id="1352" value="UserId=1352"/>
  <Item id="1353" value="UserId=1353"/>
  <Item id="1354" value="UserId=1354"/>
  <Item id="1355" value="UserId=1355"/>
  <Item id="1356" value="UserId=1356"/>
  <Item id="1357" value="UserId=1357"/>
  <Item id="1358" value="UserId=1358"/>
  <Item id="1359" value="UserId=1359"/>
  <Item id="1360" value="UserId=1360"/>
  <Item id="1361" value="UserId=1361"/>
  <Item id="1362" value="UserId=1362"/>
  <Item id="1363" value="UserId=1363"/>
  <Item id="1364" value="UserId=1364"/>
  <Item id="1365" value="UserId=1365"/>
  <Item id="1366" value="UserId=1366"/>
  <Item id="1367" value="UserId=1367"/>
  <Item id="1368" value="UserId=1368"/>
  <Item id="1369" value="UserId=1369"/>
  <Item id="1370" value="UserId=1370"/>
  <Item id="1371" value="UserId=1371"/>
  <Item id="1372" value="UserId=1372"/>
  <Item id="1373" value="UserId=1373"/>
  <Item id="1374" value="UserId=1374"/>
  <Item id="1375" value="UserId=1375"/>
  <Item id="1376" value="UserId=1376"/>
  <Item id="1377" value="UserId=1377"/>
  <Item id="1378" value="UserId=1378"/>
  <Item id="1379" value="UserId=1379"/>
  <Item id="1380" value="UserId=1380"/>
  <Item id="1381" value="UserId=1381"/>
  <Item id="1382" value="UserId=1382"/>
  <Item id="1383" value="UserId=1383"/>
  <Item id="1384" value="UserId=1384"/>
  <Item id="1385" value="UserId=1385"/>
  <Item id="1386" value="UserId=1386"/>
  <Item id="1387" value="UserId=1387"/>
  <Item id="1388" value="UserId=1388"/>
  <Item id="1389" value="UserId=1389"/>
  <Item id="1390" value="UserId=1390"/>
  <Item id="1391" value="UserId=1391"/>
  <Item id="1392" value="UserId=1392"/>
  <Item id="1393" value="UserId=1393"/>
  <Item id="1394" value="UserId=1394"/>
  <Item id="1395" value="UserId=1395"/>
  <Item id="1396" value="UserId=1396"/>
  <Item id="1397" value="UserId=1397"/>
  <Item id="1398" value="UserId=1398"/>
  <Item id="1399" value="UserId=1399"/>
  <Item id="1400" value="UserId=1400"/>
  <Item id="1401" value="UserId=1401"/>
  <Item id="1402" value="UserId=1402"/>
  <Item id="1403" value="UserId=1403"/>
  <Item id="1404" value="UserId=1404"/>
  <Item id="1405" value="UserId=1405"/>
  <Item id="1406" value="UserId=1406"/>
  <Item id="1407" value="UserId=1407"/>
  <Item id="1408" value="UserId=1408"/>
  <Item id="1409" value="UserId=1409"/>
  <Item id="1410" value="UserId=1410"/>
  <Item id="1411" value="UserId=1411"/>
  <Item id="1412" value="UserId=1412"/>
  <Item id="1413" value="UserId=1413"/>
  <Item id="1414" value="UserId=1414"/>
  <Item id="1415" value="UserId=1415"/>
  <Item id="1416" value="UserId=1416"/>
  <Item id="1417" value="UserId=1417"/>
  <Item id="1418" value="UserId=1418"/>
  <Item id="1419" value="UserId=1419"/>
  <Item id="1420" value="UserId=1420"/>
  <Item id="1421" value="UserId=1421"/>
  <Item id="1422" value="UserId=1422"/>
  <Item id="1423" value="UserId=1423"/>
  <Item id="1424" value="UserId=1424"/>
  <Item id="1425" value="UserId=1425"/>
  <Item id="1426" value="UserId=1426"/>
  <Item id="1427" value="UserId=1427"/>
  <Item id="1428" value="UserId=1428"/>
  <Item id="1429" value="UserId=1429"/>
  <Item id="1430" value="UserId=1430"/>
  <Item id="1431" value="UserId=1431"/>
  <Item id="1432" value="UserId=1432"/>
  <Item id="1433" value="UserId=1433"/>
  <Item id="1434" value="UserId=1434"/>
  <Item id="1435" value="UserId=1435"/>
  <Item id="1436" value="UserId=1436"/>
  <Item id="1437" value="UserId=1437"/>
  <Item id="1438" value="UserId=1438"/>
  <Item id="1439" value="UserId=1439"/>
  <Item id="1440" value="UserId=1440"/>
  <Item id="1441" value="UserId=1441"/>
  <Item id="1442" value="UserId=1442"/>
  <Item id="1443" value="UserId=1443"/>
  <Item id="1444" value="UserId=1444"/>
  <Item id="1445" value="UserId=1445"/>
  <Item id="1446" value="UserId=1446"/>
  <Item id="1447" value="UserId=1447"/>
  <Item id="1448" value="UserId=1448"/>
  <Item id="1449" value="UserId=1449"/>
  <Item id="1450" value="UserId=1450"/>
  <Item id="1451" value="UserId=1451"/>
  <Item id="1452" value="UserId=1452"/>
  <Item id="1453" value="UserId=1453"/>
  <Item id="1454" value="UserId=1454"/>
  <Item id="1455" value="UserId=1455"/>
  <Item id="1456" value="UserId=1456"/>
  <Item id="1457" value="UserId=1457"/>
  <Item id="1458" value="UserId=1458"/>
  <Item id="1459" value="UserId=1459"/>
  <Item id="1460" value="UserId=1460"/>
  <Item id="1461" value="UserId=1461"/>
  <Item id="1462" value="UserId=1462"/>
  <Item id="1463" value="UserId=1463"/>
  <Item id="1464" value="UserId=1464"/>
  <Item id="1465" value="UserId=1465"/>
  <Item id="1466" value="UserId=1466"/>
  <Item id="1467" value="UserId=1467"/>
  <Item id="1468" value="UserId=1468"/>
  <Item id="1469" value="UserId=1469"/>
  <Item id="1470" value="UserId=1470"/>
  <Item id="1471" value="UserId=1471"/>
  <Item id="1472" value="UserId=1472"/>
  <Item id="1473" value="UserId=1473"/>
  <Item id="1474" value="UserId=1474"/>
  <Item id="1475" value="UserId=1475"/>
  <Item id="1476" value="UserId=1476"/>
  <Item id="1477" value="UserId=1477"/>
  <Item id="1478" value="UserId=1478"/>
  <Item id="1479" value="UserId=1479"/>
  <Item id="1480" value="UserId=1480"/>
  <Item id="1481" value="UserId=1481"/>
  <Item id="1482" value="UserId=1482"/>
  <Item id="1483" value="UserId=1483"/>
  <Item id="1484" value="UserId=1484"/>
  <Item id="1485" value="UserId=1485"/>
  <Item id="1486" value="UserId=1486"/>
  <Item id="1487" value="UserId=1487"/>
  <Item id="1488" value="UserId=1488"/>
  <Item id="1489" value="UserId=1489"/>
  <Item id="1490" value="UserId=1490"/>
  <Item id="1491" value="UserId=1491"/>
  <Item id="1492" value="UserId=1492"/>
  <Item id="1493" value="UserId=1493"/>
  <Item id="1494" value="UserId=1494"/>
  <Item id="1495" value="UserId=1495"/>
  <Item id="1496" value="UserId=1496"/>
  <Item id="1497" value="UserId=1497"/>
  <Item id="1498" value="UserId=1498"/>
  <Item id="1499" value="UserId=1499"/>
  <Item id="1500" value="UserId=1500"/>
  <Item id="1501" value="UserId=1501"/>
  <Item id="1502" value="UserId=1502"/>
  <Item id="1503" value="UserId=1503"/>
  <Item id="1504" value="UserId=1504"/>
  <Item id="1505" value="UserId=1505"/>
  <Item id="1506" value="UserId=1506"/>
  <Item id="1507" value="UserId=1507"/>
  <Item id="1508" value="UserId=1508"/>
  <Item id="1509" value="UserId=1509"/>
  <Item id="1510" value="UserId=1510"/>
  <Item id="1511" value="UserId=1511"/>
  <Item id="1512" value="UserId=1512"/>
  <Item id="1513" value="UserId=1513"/>
  <Item id="1514" value="UserId=1514"/>
  <Item id="1515" value="UserId=1515"/>
  <Item id="1516" value="UserId=1516"/>
  <Item id="1517" value="UserId=1517"/>
  <Item id="1518" value="UserId=1518"/>
  <Item id="1519" value="UserId=1519"/>
  <Item id="1520" value="UserId=1520"/>
  <Item id="1521" value="UserId=1521"/>
  <Item id="1522" value="UserId=1522"/>
  <Item id="1523" value="UserId=1523"/>
  <Item id="1524" value="UserId=1524"/>
  <Item id="1525" value="UserId=1525"/>
  <Item id="1526" value="UserId=1526"/>
  <Item id="1527" value="UserId=1527"/>
  <Item id="1528" value="UserId=1528"/>
  <Item id="1529" value="UserId=1529"/>
  <Item id="1530" value="UserId=1530"/>
  <Item id="1531" value="UserId=1531"/>
  <Item id="1532" value="UserId=1532"/>
  <Item id="1533" value="UserId=1533"/>
  <Item id="1534" value="UserId=1534"/>
  <Item id="1535" value="UserId=1535"/>
  <Item id="1536" value="UserId=1536"/>
  <Item id="1537" value="UserId=1537"/>
  <Item id="1538" value="UserId=1538"/>
  <Item id="1539" value="UserId=1539"/>
  <Item id="1540" value="UserId=1540"/>
  <Item id="1541" value="UserId=1541"/>
  <Item id="1542" value="UserId=1542"/>
  <Item id="1543" value="UserId=1543"/>
  <Item id="1544" value="UserId=1544"/>
  <Item id="1545" value="UserId=1545"/>
  <Item id="1546" value="UserId=1546"/>
  <Item id="1547" value="UserId=1547"/>
  <Item id="1548" value="UserId=1548"/>
  <Item id="1549" value="UserId=1549"/>
  <Item id="1550" value="UserId=1550"/>
  <Item id="1551" value="UserId=1551"/>
  <Item id="1552" value="UserId=1552"/>
  <Item id="1553" value="UserId=1553"/>
  <Item id="1554" value="UserId=1554"/>
  <Item id="1555" value="UserId=1555"/>
  <Item id="1556" value="UserId=1556"/>
  <Item id="1557" value="UserId=1557"/>
  <Item id="1558" value="UserId=1558"/>
  <Item id="1559" value="UserId=1559"/>
  <Item id="1560" value="UserId=1560"/>
  <Item id="1561" value="UserId=1561"/>
  <Item id="1562" value="UserId=1562"/>
  <Item id="1563" value="UserId=1563"/>
  <Item id="1564" value="UserId=1564"/>
  <Item id="1565" value="UserId=1565"/>
  <Item id="1566" value="UserId=1566"/>
  <Item id="1567" value="UserId=1567"/>
  <Item id="1568" value="UserId=1568"/>
  <Item id="1569" value="UserId=1569"/>
  <Item id="1570" value="UserId=1570"/>
  <Item id="1571" value="UserId=1571"/>
  <Item id="1572" value="UserId=1572"/>
  <Item id="1573" value="UserId=1573"/>
  <Item id="1574" value="UserId=1574"/>
  <Item id="1575" value="UserId=1575"/>
  <Item id="1576" value="UserId=1576"/>
  <Item id="1577" value="UserId=1577"/>
  <Item id="1578" value="UserId=1578"/>
  <Item id="1579" value="UserId=1579"/>
  <Item id="1580" value="UserId=1580"/>
  <Item id="1581" value="UserId=1581"/>
  <Item id="1582" value="UserId=1582"/>
  <Item id="1583" value="UserId=1583"/>
  <Item id="1584" value="UserId=1584"/>
  <Item id="1585" value="UserId=1585"/>
  <Item id="1586" value="UserId=1586"/>
  <Item id="1587" value="UserId=1587"/>
  <Item id="1588" value="UserId=1588"/>
  <Item id="1589" value="UserId=1589"/>
  <Item id="1590" value="UserId=1590"/>
  <Item id="1591" value="UserId=1591"/>
  <Item id="1592" value="UserId=1592"/>
  <Item id="1593" value="UserId=1593"/>
  <Item id="1594" value="UserId=1594"/>
  <Item id="1595" value="UserId=1595"/>
  <Item id="1596" value="UserId=1596"/>
  <Item id="1597" value="UserId=1597"/>
  <Item id="1598" value="UserId=1598"/>
  <Item id="1599" value="UserId=1599"/>
  <Item id="1600" value="UserId=1600"/>
  <Item id="1601" value="UserId=1601"/>
  <Item id="1602" value="UserId=1602"/>
  <Item id="1603" value="UserId=1603"/>
  <Item id="1604" value="UserId=1604"/>
  <Item id="1605" value="UserId=1605"/>
  <Item id="1606" value="UserId=1606"/>
  <Item id="1607" value="UserId=1607"/>
  <Item id="1608" value="UserId=1608"/>
  <Item id="1609" value="UserId=1609"/>
  <Item id="1610" value="UserId=1610"/>
  <Item id="1611" value="UserId=1611"/>
  <Item id="1612" value="UserId=1612"/>
  <Item id="1613" value="UserId=1613"/>
  <Item id="1614" value="UserId=1614"/>
  <Item id="1615" value="UserId=1615"/>
  <Item id="1616" value="UserId=1616"/>
  <Item id="1617" value="UserId=1617"/>
  <Item id="1618" value="UserId=1618"/>
  <Item id="1619" value="UserId=1619"/>
  <Item id="1620" value="UserId=1620"/>
  <Item id="1621" value="UserId=1621"/>
  <Item id="1622" value="UserId=1622"/>
  <Item id="1623" value="UserId=1623"/>
  <Item id="1624" value="UserId=1624"/>
  <Item id="1625" value="UserId=1625"/>
  <Item id="1626" value="UserId=1626"/>
  <Item id="1627" value="UserId=1627"/>
  <Item id="1628" value="UserId=1628"/>
  <Item id="1629" value="UserId=1629"/>
  <Item id="1630" value="UserId=1630"/>
  <Item id="1631" value="UserId=1631"/>
  <Item id="1632" value="UserId=1632"/>
  <Item id="1633" value="UserId=1633"/>
  <Item id="1634" value="UserId=1634"/>
  <Item id="1635" value="UserId=1635"/>
  <Item id="1636" value="UserId=1636"/>
  <Item id="1637" value="UserId=1637"/>
  <Item id="1638" value="UserId=1638"/>
  <Item id="1639" value="UserId=1639"/>
  <Item id="1640" value="UserId=1640"/>
  <Item id="1641" value="UserId=1641"/>
  <Item id="1642" value="UserId=1642"/>
  <Item id="1643" value="UserId=1643"/>
  <Item id="1644" value="UserId=1644"/>
  <Item id="1645" value="UserId=1645"/>
  <Item id="1646" value="UserId=1646"/>
  <Item id="1647" value="UserId=1647"/>
  <Item id="1648" value="UserId=1648"/>
  <Item id="1649" value="UserId=1649"/>
  <Item id="1650" value="UserId=1650"/>
  <Item id="1651" value="UserId=1651"/>
  <Item id="1652" value="UserId=1652"/>
  <Item id="1653" value="UserId=1653"/>
  <Item id="1654" value="UserId=1654"/>
  <Item id="1655" value="UserId=1655"/>
  <Item id="1656" value="UserId=1656"/>
  <Item id="1657" value="UserId=1657"/>
  <Item id="1658" value="UserId=1658"/>
  <Item id="1659" value="UserId=1659"/>
  <Item id="1660" value="UserId=1660"/>
  <Item id="1661" value="UserId=1661"/>
  <Item id="1662" value="UserId=1662"/>
  <Item id="1663" value="UserId=1663"/>
  <Item id="1664" value="UserId=1664"/>
  <Item id="1665" value="UserId=1665"/>
  <Item id="1666" value="UserId=1666"/>
  <Item id="1667" value="UserId=1667"/>
  <Item id="1668" value="UserId=1668"/>
  <Item id="1669" value="UserId=1669"/>
  <Item id="1670" value="UserId=1670"/>
  <Item id="1671" value="UserId=1671"/>
  <Item id="1672" value="UserId=1672"/>
  <Item id="1673" value="UserId=1673"/>
  <Item id="1674" value="UserId=1674"/>
  <Item id="1675" value="UserId=1675"/>
  <Item id="1676" value="UserId=1676"/>
  <Item id="1677" value="UserId=1677"/>
  <Item id="1678" value="UserId=1678"/>
  <Item id="1679" value="UserId=1679"/>
  <Item id="1680" value="UserId=1680"/>
  <Item id="1681" value="UserId=1681"/>
  <Item id="1682" value="UserId=1682"/>
  <Item id="1683" value="UserId=1683"/>
  <Item id="1684" value="UserId=1684"/>
  <Item id="1685" value="UserId=1685"/>
  <Item id="1686" value="UserId=1686"/>
  <Item id="1687" value="UserId=1687"/>
  <Item id="1688" value="UserId=1688"/>
  <Item id="1689" value="UserId=1689"/>
  <Item id="1690" value="UserId=1690"/>
  <Item id="1691" value="UserId=1691"/>
  <Item id="1692" value="UserId=1692"/>
  <Item id="1693" value="UserId=1693"/>
  <Item id="1694" value="UserId=1694"/>
  <Item id="1695" value="UserId=1695"/>
  <Item id="1696" value="UserId=1696"/>
  <Item id="1697" value="UserId=1697"/>
  <Item id="1698" value="UserId=1698"/>
  <Item id="1699" value="UserId=1699"/>
  <Item id="1700" value="UserId=1700"/>
  <Item id="1701" value="UserId=1701"/>
  <Item id="1702" value="UserId=1702"/>
  <Item id="1703" value="UserId=1703"/>
  <Item id="1704" value="UserId=1704"/>
  <Item id="1705" value="UserId=1705"/>
  <Item id="1706" value="UserId=1706"/>
  <Item id="1707" value="UserId=1707"/>
  <Item id="1708" value="UserId=1708"/>
  <Item id="1709" value="UserId=1709"/>
  <Item id="1710" value="UserId=1710"/>
  <Item id="1711" value="UserId=1711"/>
  <Item id="1712" value="UserId=1712"/>
  <Item id="1713" value="UserId=1713"/>
  <Item id="1714" value="UserId=1714"/>
  <Item id="1715" value="UserId=1715"/>
  <Item id="1716" value="UserId=1716"/>
  <Item id="1717" value="UserId=1717"/>
  <Item id="1718" value="UserId=1718"/>
  <Item id="1719" value="UserId=1719"/>
  <Item id="1720" value="UserId=1720"/>
  <Item id="1721" value="UserId=1721"/>
  <Item id="1722" value="UserId=1722"/>
  <Item id="1723" value="UserId=1723"/>
  <Item id="1724" value="UserId=1724"/>
  <Item id="1725" value="UserId=1725"/>
  <Item id="1726" value="UserId=1726"/>
  <Item id="1727" value="UserId=1727"/>
  <Item id="1728" value="UserId=1728"/>
  <Item id="1729" value="UserId=1729"/>
  <Item id="1730" value="UserId=1730"/>
  <Item id="1731" value="UserId=1731"/>
  <Item id="1732" value="UserId=1732"/>
  <Item id="1733" value="UserId=1733"/>
  <Item id="1734" value="UserId=1734"/>
  <Item id="1735" value="UserId=1735"/>
  <Item id="1736" value="UserId=1736"/>
  <Item id="1737" value="UserId=1737"/>
  <Item id="1738" value="UserId=1738"/>
  <Item id="1739" value="UserId=1739"/>
  <Item id="1740" value="UserId=1740"/>
  <Item id="1741" value="UserId=1741"/>
  <Item id="1742" value="UserId=1742"/>
  <Item id="1743" value="UserId=1743"/>
  <Item id="1744" value="UserId=1744"/>
  <Item id="1745" value="UserId=1745"/>
  <Item id="1746" value="UserId=1746"/>
  <Item id="1747" value="UserId=1747"/>
  <Item id="1748" value="UserId=1748"/>
  <Item id="1749" value="UserId=1749"/>
  <Item id="1750" value="UserId=1750"/>
  <Item id="1751" value="UserId=1751"/>
  <Item id="1752" value="UserId=1752"/>
  <Item id="1753" value="UserId=1753"/>
  <Item id="1754" value="UserId=1754"/>
  <Item id="1755" value="UserId=1755"/>
  <Item id="1756" value="UserId=1756"/>
  <Item id="1757" value="UserId=1757"/>
  <Item id="1758" value="UserId=1758"/>
  <Item id="1759" value="UserId=1759"/>
  <Item id="1760" value="UserId=1760"/>
  <Item id="1761" value="UserId=1761"/>
  <Item id="1762" value="UserId=1762"/>
  <Item id="1763" value="UserId=1763"/>
  <Item id="1764" value="UserId=1764"/>
  <Item id="1765" value="UserId=1765"/>
  <Item id="1766" value="UserId=1766"/>
  <Item id="1767" value="UserId=1767"/>
  <Item id="1768" value="UserId=1768"/>
  <Item id="1769" value="UserId=1769"/>
  <Item id="1770" value="UserId=1770"/>
  <Item id="1771" value="UserId=1771"/>
  <Item id="1772" value="UserId=1772"/>
  <Item id="1773" value="UserId=1773"/>
  <Item id="1774" value="UserId=1774"/>
  <Item id="1775" value="UserId=1775"/>
  <Item id="1776" value="UserId=1776"/>
  <Item id="1777" value="UserId=1777"/>
  <Item id="1778" value="UserId=1778"/>
  <Item id="1779" value="UserId=1779"/>
  <Item id="1780" value="UserId=1780"/>
  <Item id="1781" value="UserId=1781"/>
  <Item id="1782" value="UserId=1782"/>
  <Item id="1783" value="UserId=1783"/>
  <Item id="1784" value="UserId=1784"/>
  <Item id="1785" value="UserId=1785"/>
  <Item id="1786" value="UserId=1786"/>
  <Item id="1787" value="UserId=1787"/>
  <Item id="1788" value="UserId=1788"/>
  <Item id="1789" value="UserId=1789"/>
  <Item id="1790" value="UserId=1790"/>
  <Item id="1791" value="UserId=1791"/>
  <Item id="1792" value="UserId=1792"/>
  <Item id="1793" value="UserId=1793"/>
  <Item id="1794" value="UserId=1794"/>
  <Item id="1795" value="UserId=1795"/>
  <Item id="1796" value="UserId=1796"/>
  <Item id="1797" value="UserId=1797"/>
  <Item id="1798" value="UserId=1798"/>
  <Item id="1799" value="UserId=1799"/>
  <Item id="1800" value="UserId=1800"/>
  <Item id="1801" value="UserId=1801"/>
  <Item id="1802" value="UserId=1802"/>
  <Item id="1803" value="UserId=1803"/>
  <Item id="1804" value="UserId=1804"/>
  <Item id="1805" value="UserId=1805"/>
  <Item id="1806" value="UserId=1806"/>
  <Item id="1807" value="UserId=1807"/>
  <Item id="1808" value="UserId=1808"/>
  <Item id="1809" value="UserId=1809"/>
  <Item id="1810" value="UserId=1810"/>
  <Item id="1811" value="UserId=1811"/>
  <Item id="1812" value="UserId=1812"/>
  <Item id="1813" value="UserId=1813"/>
  <Item id="1814" value="UserId=1814"/>
  <Item id="1815" value="UserId=1815"/>
  <Item id="1816" value="UserId=1816"/>
  <Item id="1817" value="UserId=1817"/>
  <Item id="1818" value="UserId=1818"/>
  <Item id="1819" value="UserId=1819"/>
  <Item id="1820" value="UserId=1820"/>
  <Item id="1821" value="UserId=1821"/>
  <Item id="1822" value="UserId=1822"/>
  <Item id="1823" value="UserId=1823"/>
  <Item id="1824" value="UserId=1824"/>
  <Item id="1825" value="UserId=1825"/>
  <Item id="1826" value="UserId=1826"/>
  <Item id="1827" value="UserId=1827"/>
  <Item id="1828" value="UserId=1828"/>
  <Item id="1829" value="UserId=1829"/>
  <Item id="1830" value="UserId=1830"/>
  <Item id="1831" value="UserId=1831"/>
  <Item id="1832" value="UserId=1832"/>
  <Item id="1833" value="UserId=1833"/>
  <Item id="1834" value="UserId=1834"/>
  <Item id="1835" value="UserId=1835"/>
  <Item id="1836" value="UserId=1836"/>
  <Item id="1837" value="UserId=1837"/>
  <Item id="1838" value="UserId=1838"/>
  <Item id="1839" value="UserId=1839"/>
  <Item id="1840" value="UserId=1840"/>
  <Item id="1841" value="UserId=1841"/>
  <Item id="1842" value="UserId=1842"/>
  <Item id="1843" value="UserId=1843"/>
  <Item id="1844" value="UserId=1844"/>
  <Item id="1845" value="UserId=1845"/>
  <Item id="1846" value="UserId=1846"/>
  <Item id="1847" value="UserId=1847"/>
  <Item id="1848" value="UserId=1848"/>
  <Item id="1849" value="UserId=1849"/>
  <Item id="1850" value="UserId=1850"/>
  <Item id="1851" value="UserId=1851"/>
  <Item id="1852" value="UserId=1852"/>
  <Item id="1853" value="UserId=1853"/>
  <Item id="1854" value="UserId=1854"/>
  <Item id="1855" value="UserId=1855"/>
  <Item id="1856" value="UserId=1856"/>
  <Item id="1857" value="UserId=1857"/>
  <Item id="1858" value="UserId=1858"/>
  <Item id="1859" value="UserId=1859"/>
  <Item id="1860" value="UserId=1860"/>
  <Item id="1861" value="UserId=1861"/>
  <Item id="1862" value="UserId=1862"/>
  <Item id="1863" value="UserId=1863"/>
  <Item id="1864" value="UserId=1864"/>
  <Item id="1865" value="UserId=1865"/>
  <Item id="1866" value="UserId=1866"/>
  <Item id="1867" value="UserId=1867"/>
  <Item id="1868" value="UserId=1868"/>
  <Item id="1869" value="UserId=1869"/>
  <Item id="1870" value="UserId=1870"/>
  <Item id="1871" value="UserId=1871"/>
  <Item id="1872" value="UserId=1872"/>
  <Item id="1873" value="UserId=1873"/>
  <Item id="1874" value="UserId=1874"/>
  <Item id="1875" value="UserId=1875"/>
  <Item id="1876" value="UserId=1876"/>
  <Item id="1877" value="UserId=1877"/>
  <Item id="1878" value="UserId=1878"/>
  <Item id="1879" value="UserId=1879"/>
  <Item id="1880" value="UserId=1880"/>
  <Item id="1881" value="UserId=1881"/>
  <Item id="1882" value="UserId=1882"/>
  <Item id="1883" value="UserId=1883"/>
  <Item id="1884" value="UserId=1884"/>
  <Item id="1885" value="UserId=1885"/>
  <Item id="1886" value="UserId=1886"/>
  <Item id="1887" value="UserId=1887"/>
  <Item id="1888" value="UserId=1888"/>
  <Item id="1889" value="UserId=1889"/>
  <Item id="1890" value="UserId=1890"/>
  <Item id="1891" value="UserId=1891"/>
  <Item id="1892" value="UserId=1892"/>
  <Item id="1893" value="UserId=1893"/>
  <Item id="1894" value="UserId=1894"/>
  <Item id="1895" value="UserId=1895"/>
  <Item id="1896" value="UserId=1896"/>
  <Item id="1897" value="UserId=1897"/>
  <Item id="1898" value="UserId=1898"/>
  <Item id="1899" value="UserId=1899"/>
  <Item id="1900" value="UserId=1900"/>
  <Item id="1901" value="UserId=1901"/>
  <Item id="1902" value="UserId=1902"/>
  <Item id="1903" value="UserId=1903"/>
  <Item id="1904" value="UserId=1904"/>
  <Item id="1905" value="UserId=1905"/>
  <Item id="1906" value="UserId=1906"/>
  <Item id="1907" value="UserId=1907"/>
  <Item id="1908" value="UserId=1908"/>
  <Item id="1909" value="UserId=1909"/>
  <Item id="1910" value="UserId=1910"/>
  <Item id="1911" value="UserId=1911"/>
  <Item id="1912" value="UserId=1912"/>
  <Item id="1913" value="UserId=1913"/>
  <Item id="1914" value="UserId=1914"/>
  <Item id="1915" value="UserId=1915"/>
  <Item id="1916" value="UserId=1916"/>
  <Item id="1917" value="UserId=1917"/>
  <Item id="1918" value="UserId=1918"/>
  <Item id="1919" value="UserId=1919"/>
  <Item id="1920" value="UserId=1920"/>
  <Item id="1921" value="UserId=1921"/>
  <Item id="1922" value="UserId=1922"/>
  <Item id="1923" value="UserId=1923"/>
  <Item id="1924" value="UserId=1924"/>
  <Item id="1925" value="UserId=1925"/>
  <Item id="1926" value="UserId=1926"/>
  <Item id="1927" value="UserId=1927"/>
  <Item id="1928" value="UserId=1928"/>
  <Item id="1929" value="UserId=1929"/>
  <Item id="1930" value="UserId=1930"/>
  <Item id="1931" value="UserId=1931"/>
  <Item id="1932" value="UserId=1932"/>
  <Item id="1933" value="UserId=1933"/>
  <Item id="1934" value="UserId=1934"/>
  <Item id="1935" value="UserId=1935"/>
  <Item id="1936" value="UserId=1936"/>
  <Item id="1937" value="UserId=1937"/>
  <Item id="1938" value="UserId=1938"/>
  <Item id="1939" value="UserId=1939"/>
  <Item id="1940" value="UserId=1940"/>
  <Item id="1941" value="UserId=1941"/>
  <Item id="1942" value="UserId=1942"/>
  <Item id="1943" value="UserId=1943"/>
  <Item id="1944" value="UserId=1944"/>
  <Item id="1945" value="UserId=1945"/>
  <Item id="1946" value="UserId=1946"/>
  <Item id="1947" value="UserId=1947"/>
  <Item id="1948" value="UserId=1948"/>
  <Item id="1949" value="UserId=1949"/>
  <Item id="1950" value="UserId=1950"/>
  <Item id="1951" value="UserId=1951"/>
  <Item id="1952" value="UserId=1952"/>
  <Item id="1953" value="UserId=1953"/>
  <Item id="1954" value="UserId=1954"/>
  <Item id="1955" value="UserId=1955"/>
  <Item id="1956" value="UserId=1956"/>
  <Item id="1957" value="UserId=1957"/>
  <Item id="1958" value="UserId=1958"/>
  <Item id="1959" value="UserId=1959"/>
  <Item id="1960" value="UserId=1960"/>
  <Item id="1961" value="UserId=1961"/>
  <Item id="1962" value="UserId=1962"/>
  <Item id="1963" value="UserId=1963"/>
  <Item id="1964" value="UserId=1964"/>
  <Item id="1965" value="UserId=1965"/>
  <Item id="1966" value="UserId=1966"/>
  <Item id="1967" value="UserId=1967"/>
  <Item id="1968" value="UserId=1968"/>
  <Item id="1969" value="UserId=1969"/>
  <Item id="1970" value="UserId=1970"/>
  <Item id="1971" value="UserId=1971"/>
  <Item id="1972" value="UserId=1972"/>
  <Item id="1973" value="UserId=1973"/>
  <Item id="1974" value="UserId=1974"/>
  <Item id="1975" value="UserId=1975"/>
  <Item id="1976" value="UserId=1976"/>
  <Item id="1977" value="UserId=1977"/>
  <Item id="1978" value="UserId=1978"/>
  <Item id="1979" value="UserId=1979"/>
  <Item id="1980" value="UserId=1980"/>
  <Item id="1981" value="UserId=1981"/>
  <Item id="1982" value="UserId=1982"/>
  <Item id="1983" value="UserId=1983"/>
  <Item id="1984" value="UserId=1984"/>
  <Item id="1985" value="UserId=1985"/>
  <Item id="1986" value="UserId=1986"/>
  <Item id="1987" value="UserId=1987"/>
  <Item id="1988" value="UserId=1988"/>
  <Item id="1989" value="UserId=1989"/>
  <Item id="1990" value="UserId=1990"/>
  <Item id="1991" value="UserId=1991"/>
  <Item id="1992" value="UserId=1992"/>
  <Item id="1993" value="UserId=1993"/>
  <Item id="1994" value="UserId=1994"/>
  <Item id="1995" value="UserId=1995"/>
  <Item id="1996" value="UserId=1996"/>
  <Item id="1997" value="UserId=1997"/>
  <Item id="1998" value="UserId=1998"/>
  <Item id="1999" value="UserId=1999"/>
  <Item id="2000" value="UserId=2000"/>
  <Item id="2001" value="UserId=2001"/>
  <Item id="2002" value="UserId=2002"/>
  <Item id="2003" value="UserId=2003"/>
  <Item id="2004" value="UserId=2004"/>
  <Item id="2005" value="UserId=2005"/>
  <Item id="2006" value="UserId=2006"/>
  <Item id="2007" value="UserId=2007"/>
  <Item id="2008" value="UserId=2008"/>
  <Item id="2009" value="UserId=2009"/>
  <Item id="2010" value="UserId=2010"/>
  <Item id="2011" value="UserId=2011"/>
  <Item id="2012" value="UserId=2012"/>
  <Item id="2013" value="UserId=2013"/>
  <Item id="2014" value="UserId=2014"/>
  <Item id="2015" value="UserId=2015"/>
  <Item id="2016" value="UserId=2016"/>
  <Item id="2017" value="UserId=2017"/>
  <Item id="2018" value="UserId=2018"/>
  <Item id="2019" value="UserId=2019"/>
  <Item id="2020" value="UserId=2020"/>
  <Item id="2021" value="UserId=2021"/>
  <Item id="2022" value="UserId=2022"/>
  <Item id="2023" value="UserId=2023"/>
  <Item id="2024" value="UserId=2024"/>
  <Item id="2025" value="UserId=2025"/>
  <Item id="2026" value="UserId=2026"/>
  <Item id="2027" value="UserId=2027"/>
  <Item id="2028" value="UserId=2028"/>
  <Item id="2029" value="UserId=2029"/>
  <Item id="2030" value="UserId=2030"/>
  <Item id="2031" value="UserId=2031"/>
  <Item id="2032" value="UserId=2032"/>
  <Item id="2033" value="UserId=2033"/>
  <Item id="2034" value="UserId=2034"/>
  <Item id="2035" value="UserId=2035"/>
  <Item id="2036" value="UserId=2036"/>
  <Item id="2037" value="UserId=2037"/>
  <Item id="2038" value="UserId=2038"/>
  <Item id="2039" value="UserId=2039"/>
  <Item id="2040" value="UserId=2040"/>
  <Item id="2041" value="UserId=2041"/>
  <Item id="2042" value="UserId=2042"/>
  <Item id="2043" value="UserId=2043"/>
  <Item id="2044" value="UserId=2044"/>
  <Item id="2045" value="UserId=2045"/>
  <Item id="2046" value="UserId=2046"/>
  <Item id="2047" value="UserId=2047"/>
  <Item id="2048" value="UserId=2048"/>
  <Item id="2049" value="UserId=2049"/>
  <Item id="2050" value="UserId=2050"/>
  <Item id="2051" value="UserId=2051"/>
  <Item id="2052" value="UserId=2052"/>
  <Item id="2053" value="UserId=2053"/>
  <Item id="2054" value="UserId=2054"/>
  <Item id="2055" value="UserId=2055"/>
  <Item id="2056" value="UserId=2056"/>
  <Item id="2057" value="UserId=2057"/>
  <Item id="2058" value="UserId=2058"/>
  <Item id="2059" value="UserId=2059"/>
  <Item id="2060" value="UserId=2060"/>
  <Item id="2061" value="UserId=2061"/>
  <Item id="2062" value="UserId=2062"/>
  <Item id="2063" value="UserId=2063"/>
  <Item id="2064" value="UserId=2064"/>
  <Item id="2065" value="UserId=2065"/>
  <Item id="2066" value="UserId=2066"/>
  <Item id="2067" value="UserId=2067"/>
  <Item id="2068" value="UserId=2068"/>
  <Item id="2069" value="UserId=2069"/>
  <Item id="2070" value="UserId=2070"/>
  <Item id="2071" value="UserId=2071"/>
  <Item id="2072" value="UserId=2072"/>
  <Item id="2073" value="UserId=2073"/>
  <Item id="2074" value="UserId=2074"/>
  <Item id="2075" value="UserId=2075"/>
  <Item id="2076" value="UserId=2076"/>
  <Item id="2077" value="UserId=2077"/>
  <Item id="2078" value="UserId=2078"/>
  <Item id="2079" value="UserId=2079"/>
  <Item id="2080" value="UserId=2080"/>
  <Item id="2081" value="UserId=2081"/>
  <Item id="2082" value="UserId=2082"/>
  <Item id="2083" value="UserId=2083"/>
  <Item id="2084" value="UserId=2084"/>
  <Item id="2085" value="UserId=2085"/>
  <Item id="2086" value="UserId=2086"/>
  <Item id="2087" value="UserId=2087"/>
  <Item id="2088" value="UserId=2088"/>
  <Item id="2089" value="UserId=2089"/>
  <Item id="2090" value="UserId=2090"/>
  <Item id="2091" value="UserId=2091"/>
  <Item id="2092" value="UserId=2092"/>
  <Item id="2093" value="UserId=2093"/>
  <Item id="2094" value="UserId=2094"/>
  <Item id="2095" value="UserId=2095"/>
  <Item id="2096" value="UserId=2096"/>
  <Item id="2097" value="UserId=2097"/>
  <Item id="2098" value="UserId=2098"/>
  <Item id="2099" value="UserId=2099"/>
  <Item id="2100" value="UserId=2100"/>
  <Item id="2101" value="UserId=2101"/>
  <Item id="2102" value="UserId=2102"/>
  <Item id="2103" value="UserId=2103"/>
  <Item id="2104" value="UserId=2104"/>
  <Item id="2105" value="UserId=2105"/>
  <Item id="2106" value="UserId=2106"/>
  <Item id="2107" value="UserId=2107"/>
  <Item id="2108" value="UserId=2108"/>
  <Item id="2109" value="UserId=2109"/>
  <Item id="2110" value="UserId=2110"/>
  <Item id="2111" value="UserId=2111"/>
  <Item id="2112" value="UserId=2112"/>
  <Item id="2113" value="UserId=2113"/>
  <Item id="2114" value="UserId=2114"/>
  <Item id="2115" value="UserId=2115"/>
  <Item id="2116" value="UserId=2116"/>
  <Item id="2117" value="UserId=2117"/>
  <Item id="2118" value="UserId=2118"/>
  <Item id="2119" value="UserId=2119"/>
  <Item id="2120" value="UserId=2120"/>
  <Item id="2121" value="UserId=2121"/>
  <Item id="2122" value="UserId=2122"/>
  <Item id="2123" value="UserId=2123"/>
  <Item id="2124" value="UserId=2124"/>
  <Item id="2125" value="UserId=2125"/>
  <Item id="2126" value="UserId=2126"/>
  <Item id="2127" value="UserId=2127"/>
  <Item id="2128" value="UserId=2128"/>
  <Item id="2129" value="UserId=2129"/>
  <Item id="2130" value="UserId=2130"/>
  <Item id="2131" value="UserId=2131"/>
  <Item id="2132" value="UserId=2132"/>
  <Item id="2133" value="UserId=2133"/>
  <Item id="2134" value="UserId=2134"/>
  <Item id="2135" value="UserId=2135"/>
  <Item id="2136" value="UserId=2136"/>
  <Item id="2137" value="UserId=2137"/>
  <Item id="2138" value="UserId=2138"/>
  <Item id="2139" value="UserId=2139"/>
  <Item id="2140" value="UserId=2140"/>
  <Item id="2141" value="UserId=2141"/>
  <Item id="2142" value="UserId=2142"/>
  <Item id="2143" value="UserId=2143"/>
  <Item id="2144" value="UserId=2144"/>
  <Item id="2145" value="UserId=2145"/>
  <Item id="2146" value="UserId=2146"/>
  <Item id="2147" value="UserId=2147"/>
  <Item id="2148" value="UserId=2148"/>
  <Item id="2149" value="UserId=2149"/>
  <Item id="2150" value="UserId=2150"/>
  <Item id="2151" value="UserId=2151"/>
  <Item id="2152" value="UserId=2152"/>
  <Item id="2153" value="UserId=2153"/>
  <Item id="2154" value="UserId=2154"/>
  <Item id="2155" value="UserId=2155"/>
  <Item id="2156" value="UserId=2156"/>
  <Item id="2157" value="UserId=2157"/>
  <Item id="2158" value="UserId=2158"/>
  <Item id="2159" value="UserId=2159"/>
  <Item id="2160" value="UserId=2160"/>
  <Item id="2161" value="UserId=2161"/>
  <Item id="2162" value="UserId=2162"/>
  <Item id="2163" value="UserId=2163"/>
  <Item id="2164" value="UserId=2164"/>
  <Item id="2165" value="UserId=2165"/>
  <Item id="2166" value="UserId=2166"/>
  <Item id="2167" value="UserId=2167"/>
  <Item id="2168" value="UserId=2168"/>
  <Item id="2169" value="UserId=2169"/>
  <Item id="2170" value="UserId=2170"/>
  <Item id="2171" value="UserId=2171"/>
  <Item id="2172" value="UserId=2172"/>
  <Item id="2173" value="UserId=2173"/>
  <Item id="2174" value="UserId=2174"/>
  <Item id="2175" value="UserId=2175"/>
  <Item id="2176" value="UserId=2176"/>
  <Item id="2177" value="UserId=2177"/>
  <Item id="2178" value="UserId=2178"/>
  <Item id="2179" value="UserId=2179"/>
  <Item id="2180" value="UserId=2180"/>
  <Item id="2181" value="UserId=2181"/>
  <Item id="2182" value="UserId=2182"/>
  <Item id="2183" value="UserId=2183"/>
  <Item id="2184" value="UserId=2184"/>
  <Item id="2185" value="UserId=2185"/>
  <Item id="2186" value="UserId=2186"/>
  <Item id="2187" value="UserId=2187"/>
  <Item id="2188" value="UserId=2188"/>
  <Item id="2189" value="UserId=2189"/>
  <Item id="2190" value="UserId=2190"/>
  <Item id="2191" value="UserId=2191"/>
  <Item id="2192" value="UserId=2192"/>
  <Item id="2193" value="UserId=2193"/>
  <Item id="2194" value="UserId=2194"/>
  <Item id="2195" value="UserId=2195"/>
  <Item id="2196" value="UserId=2196"/>
  <Item id="2197" value="UserId=2197"/>
  <Item id="2198" value="UserId=2198"/>
  <Item id="2199" value="UserId=2199"/>
  <Item id="2200" value="UserId=2200"/>
  <Item id="2201" value="UserId=2201"/>
  <Item id="2202" value="UserId=2202"/>
  <Item id="2203" value="UserId=2203"/>
  <Item id="2204" value="UserId=2204"/>
  <Item id="2205" value="UserId=2205"/>
  <Item id="2206" value="UserId=2206"/>
  <Item id="2207" value="UserId=2207"/>
  <Item id="2208" value="UserId=2208"/>
  <Item id="2209" value="UserId=2209"/>
  <Item id="2210" value="UserId=2210"/>
  <Item id="2211" value="UserId=2211"/>
  <Item id="2212" value="UserId=2212"/>
  <Item id="2213" value="UserId=2213"/>
  <Item id="2214" value="UserId=2214"/>
  <Item id="2215" value="UserId=2215"/>
  <Item id="2216" value="UserId=2216"/>
  <Item id="2217" value="UserId=2217"/>
  <Item id="2218" value="UserId=2218"/>
  <Item id="2219" value="UserId=2219"/>
  <Item id="2220" value="UserId=2220"/>
  <Item id="2221" value="UserId=2221"/>
  <Item id="2222" value="UserId=2222"/>
  <Item id="2223" value="UserId=2223"/>
  <Item id="2224" value="UserId=2224"/>
  <Item id="2225" value="UserId=2225"/>
  <Item id="2226" value="UserId=2226"/>
  <Item id="2227" value="UserId=2227"/>
  <Item id="2228" value="UserId=2228"/>
  <Item id="2229" value="UserId=2229"/>
  <Item id="2230" value="UserId=2230"/>
  <Item id="2231" value="UserId=2231"/>
  <Item id="2232" value="UserId=2232"/>
  <Item id="2233" value="UserId=2233"/>
  <Item id="2234" value="UserId=2234"/>
  <Item id="2235" value="UserId=2235"/>
  <Item id="2236" value="UserId=2236"/>
  <Item id="2237" value="UserId=2237"/>
  <Item id="2238" value="UserId=2238"/>
  <Item id="2239" value="UserId=2239"/>
  <Item id="2240" value="UserId=2240"/>
  <Item id="2241" value="UserId=2241"/>
  <Item id="2242" value="UserId=2242"/>
  <Item id="2243" value="UserId=2243"/>
  <Item id="2244" value="UserId=2244"/>
  <Item id="2245" value="UserId=2245"/>
  <Item id="2246" value="UserId=2246"/>
  <Item id="2247" value="UserId=2247"/>
  <Item id="2248" value="UserId=2248"/>
  <Item id="2249" value="UserId=2249"/>
  <Item id="2250" value="UserId=2250"/>
  <Item id="2251" value="UserId=2251"/>
  <Item id="2252" value="UserId=2252"/>
  <Item id="2253" value="UserId=2253"/>
  <Item id="2254" value="UserId=2254"/>
  <Item id="2255" value="UserId=2255"/>
  <Item id="2256" value="UserId=2256"/>
  <Item id="2257" value="UserId=2257"/>
  <Item id="2258" value="UserId=2258"/>
  <Item id="2259" value="UserId=2259"/>
  <Item id="2260" value="UserId=2260"/>
  <Item id="2261" value="UserId=2261"/>
  <Item id="2262" value="UserId=2262"/>
  <Item id="2263" value="UserId=2263"/>
  <Item id="2264" value="UserId=2264"/>
  <Item id="2265" value="UserId=2265"/>
  <Item id="2266" value="UserId=2266"/>
  <Item id="2267" value="UserId=2267"/>
  <Item id="2268" value="UserId=2268"/>
  <Item id="2269" value="UserId=2269"/>
  <Item id="2270" value="UserId=2270"/>
  <Item id="2271" value="UserId=2271"/>
  <Item id="2272" value="UserId=2272"/>
  <Item id="2273" value="UserId=2273"/>
  <Item id="2274" value="UserId=2274"/>
  <Item id="2275" value="UserId=2275"/>
  <Item id="2276" value="UserId=2276"/>
  <Item id="2277" value="UserId=2277"/>
  <Item id="2278" value="UserId=2278"/>
  <Item id="2279" value="UserId=2279"/>
  <Item id="2280" value="UserId=2280"/>
  <Item id="2281" value="UserId=2281"/>
  <Item id="2282" value="UserId=2282"/>
  <Item id="2283" value="UserId=2283"/>
  <Item id="2284" value="UserId=2284"/>
  <Item id="2285" value="UserId=2285"/>
  <Item id="2286" value="UserId=2286"/>
  <Item id="2287" value="UserId=2287"/>
  <Item id="2288" value="UserId=2288"/>
  <Item id="2289" value="UserId=2289"/>
  <Item id="2290" value="UserId=2290"/>
  <Item id="2291" value="UserId=2291"/>
  <Item id="2292" value="UserId=2292"/>
  <Item id="2293" value="UserId=2293"/>
  <Item id="2294" value="UserId=2294"/>
  <Item id="2295" value="UserId=2295"/>
  <Item id="2296" value="UserId=2296"/>
  <Item id="2297" value="UserId=2297"/>
  <Item id="2298" value="UserId=2298"/>
  <Item id="2299" value="UserId=2299"/>
  <Item id="2300" value="UserId=2300"/>
  <Item id="2301" value="UserId=2301"/>
  <Item id="2302" value="UserId=2302"/>
  <Item id="2303" value="UserId=2303"/>
  <Item id="2304" value="UserId=2304"/>
  <Item id="2305" value="UserId=2305"/>
  <Item id="2306" value="UserId=2306"/>
  <Item id="2307" value="UserId=2307"/>
  <Item id="2308" value="UserId=2308"/>
  <Item id="2309" value="UserId=2309"/>
  <Item id="2310" value="UserId=2310"/>
  <Item id="2311" value="UserId=2311"/>
  <Item id="2312" value="UserId=2312"/>
  <Item id="2313" value="UserId=2313"/>
  <Item id="2314" value="UserId=2314"/>
  <Item id="2315" value="UserId=2315"/>
  <Item id="2316" value="UserId=2316"/>
  <Item id="2317" value="UserId=2317"/>
  <Item id="2318" value="UserId=2318"/>
  <Item id="2319" value="UserId=2319"/>
  <Item id="2320" value="UserId=2320"/>
  <Item id="2321" value="UserId=2321"/>
  <Item id="2322" value="UserId=2322"/>
  <Item id="2323" value="UserId=2323"/>
  <Item id="2324" value="UserId=2324"/>
  <Item id="2325" value="UserId=2325"/>
  <Item id="2326" value="UserId=2326"/>
  <Item id="2327" value="UserId=2327"/>
  <Item id="2328" value="UserId=2328"/>
  <Item id="2329" value="UserId=2329"/>
  <Item id="2330" value="UserId=2330"/>
  <Item id="2331" value="UserId=2331"/>
  <Item id="2332" value="UserId=2332"/>
  <Item id="2333" value="UserId=2333"/>
  <Item id="2334" value="UserId=2334"/>
  <Item id="2335" value="UserId=2335"/>
  <Item id="2336" value="UserId=2336"/>
  <Item id="2337" value="UserId=2337"/>
  <Item id="2338" value="UserId=2338"/>
  <Item id="2339" value="UserId=2339"/>
  <Item id="2340" value="UserId=2340"/>
  <Item id="2341" value="UserId=2341"/>
  <Item id="2342" value="UserId=2342"/>
  <Item id="2343" value="UserId=2343"/>
  <Item id="2344" value="UserId=2344"/>
  <Item id="2345" value="UserId=2345"/>
  <Item id="2346" value="UserId=2346"/>
  <Item id="2347" value="UserId=2347"/>
  <Item id="2348" value="UserId=2348"/>
  <Item id="2349" value="UserId=2349"/>
  <Item id="2350" value="UserId=2350"/>
  <Item id="2351" value="UserId=2351"/>
  <Item id="2352" value="UserId=2352"/>
  <Item id="2353" value="UserId=2353"/>
  <Item id="2354" value="UserId=2354"/>
  <Item id="2355" value="UserId=2355"/>
  <Item id="2356" value="UserId=2356"/>
  <Item id="2357" value="UserId=2357"/>
  <Item id="2358" value="UserId=2358"/>
  <Item id="2359" value="UserId=2359"/>
  <Item id="2360" value="UserId=2360"/>
  <Item id="2361" value="UserId=2361"/>
  <Item id="2362" value="UserId=2362"/>
  <Item id="2363" value="UserId=2363"/>
  <Item id="2364" value="UserId=2364"/>
  <Item id="2365" value="UserId=2365"/>
  <Item id="2366" value="UserId=2366"/>
  <Item id="2367" value="UserId=2367"/>
  <Item id="2368" value="UserId=2368"/>
  <Item id="2369" value="UserId=2369"/>
  <Item id="2370" value="UserId=2370"/>
  <Item id="2371" value="UserId=2371"/>
  <Item id="2372" value="UserId=2372"/>
  <Item id="2373" value="UserId=2373"/>
  <Item id="2374" value="UserId=2374"/>
  <Item id="2375" value="UserId=2375"/>
  <Item id="2376" value="UserId=2376"/>
  <Item id="2377" value="UserId=2377"/>
  <Item id="2378" value="UserId=2378"/>
  <Item id="2379" value="UserId=2379"/>
  <Item id="2380" value="UserId=2380"/>
  <Item id="2381" value="UserId=2381"/>
  <Item id="2382" value="UserId=2382"/>
  <Item id="2383" value="UserId=2383"/>
  <Item id="2384" value="UserId=2384"/>
  <Item id="2385" value="UserId=2385"/>
  <Item id="2386" value="UserId=2386"/>
  <Item id="2387" value="UserId=2387"/>
  <Item id="2388" value="UserId=2388"/>
  <Item id="2389" value="UserId=2389"/>
  <Item id="2390" value="UserId=2390"/>
  <Item id="2391" value="UserId=2391"/>
  <Item id="2392" value="UserId=2392"/>
  <Item id="2393" value="UserId=2393"/>
  <Item id="2394" value="UserId=2394"/>
  <Item id="2395" value="UserId=2395"/>
  <Item id="2396" value="UserId=2396"/>
  <Item id="2397" value="UserId=2397"/>
  <Item id="2398" value="UserId=2398"/>
  <Item id="2399" value="UserId=2399"/>
  <Item id="2400" value="UserId=2400"/>
  <Item id="2401" value="UserId=2401"/>
  <Item id="2402" value="UserId=2402"/>
  <Item id="2403" value="UserId=2403"/>
  <Item id="2404" value="UserId=2404"/>
  <Item id="2405" value="UserId=2405"/>
  <Item id="2406" value="UserId=2406"/>
  <Item id="2407" value="UserId=2407"/>
  <Item id="2408" value="UserId=2408"/>
  <Item id="2409" value="UserId=2409"/>
  <Item id="2410" value="UserId=2410"/>
  <Item id="2411" value="UserId=2411"/>
  <Item id="2412" value="UserId=2412"/>
  <Item id="2413" value="UserId=2413"/>
  <Item id="2414" value="UserId=2414"/>
  <Item id="2415" value="UserId=2415"/>
  <Item id="2416" value="UserId=2416"/>
  <Item id="2417" value="UserId=2417"/>
  <Item id="2418" value="UserId=2418"/>
  <Item id="2419" value="UserId=2419"/>
  <Item id="2420" value="UserId=2420"/>
  <Item id="2421" value="UserId=2421"/>
  <Item id="2422" value="UserId=2422"/>
  <Item id="2423" value="UserId=2423"/>
  <Item id="2424" value="UserId=2424"/>
  <Item id="2425" value="UserId=2425"/>
  <Item id="2426" value="UserId=2426"/>
  <Item id="2427" value="UserId=2427"/>
  <Item id="2428" value="UserId=2428"/>
  <Item id="2429" value="UserId=2429"/>
  <Item id="2430" value="UserId=2430"/>
  <Item id="2431" value="UserId=2431"/>
  <Item id="2432" value="UserId=2432"/>
  <Item id="2433" value="UserId=2433"/>
  <Item id="2434" value="UserId=2434"/>
  <Item id="2435" value="UserId=2435"/>
  <Item id="2436" value="UserId=2436"/>
  <Item id="2437" value="UserId=2437"/>
  <Item id="2438" value="UserId=2438"/>
  <Item id="2439" value="UserId=2439"/>
  <Item id="2440" value="UserId=2440"/>
  <Item id="2441" value="UserId=2441"/>
  <Item id="2442" value="UserId=2442"/>
  <Item id="2443" value="UserId=2443"/>
  <Item id="2444" value="UserId=2444"/>
  <Item id="2445" value="UserId=2445"/>
  <Item id="2446" value="UserId=2446"/>
  <Item id="2447" value="UserId=2447"/>
  <Item id="2448" value="UserId=2448"/>
  <Item id="2449" value="UserId=2449"/>
  <Item id="2450" value="UserId=2450"/>
  <Item id="2451" value="UserId=2451"/>
  <Item id="2452" value="UserId=2452"/>
  <Item id="2453" value="UserId=2453"/>
  <Item id="2454" value="UserId=2454"/>
  <Item id="2455" value="UserId=2455"/>
  <Item id="2456" value="UserId=2456"/>
  <Item id="2457" value="UserId=2457"/>
  <Item id="2458" value="UserId=2458"/>
  <Item id="2459" value="UserId=2459"/>
  <Item id="2460" value="UserId=2460"/>
  <Item id="2461" value="UserId=2461"/>
  <Item id="2462" value="UserId=2462"/>
  <Item id="2463" value="UserId=2463"/>
  <Item id="2464" value="UserId=2464"/>
  <Item id="2465" value="UserId=2465"/>
  <Item id="2466" value="UserId=2466"/>
  <Item id="2467" value="UserId=2467"/>
  <Item id="2468" value="UserId=2468"/>
  <Item id="2469" value="UserId=2469"/>
  <Item id="2470" value="UserId=2470"/>
  <Item id="2471" value="UserId=2471"/>
  <Item id="2472" value="UserId=2472"/>
  <Item id="2473" value="UserId=2473"/>
  <Item id="2474" value="UserId=2474"/>
  <Item id="2475" value="UserId=2475"/>
  <Item id="2476" value="UserId=2476"/>
  <Item id="2477" value="UserId=2477"/>
  <Item id="2478" value="UserId=2478"/>
  <Item id="2479" value="UserId=2479"/>
  <Item id="2480" value="UserId=2480"/>
  <Item id="2481" value="UserId=2481"/>
  <Item id="2482" value="UserId=2482"/>
  <Item id="2483" value="UserId=2483"/>
  <Item id="2484" value="UserId=2484"/>
  <Item id="2485" value="UserId=2485"/>
  <Item id="2486" value="UserId=2486"/>
  <Item id="2487" value="UserId=2487"/>
  <Item id="2488" value="UserId=2488"/>
  <Item id="2489" value="UserId=2489"/>
  <Item id="2490" value="UserId=2490"/>
  <Item id="2491" value="UserId=2491"/>
  <Item id="2492" value="UserId=2492"/>
  <Item id="2493" value="UserId=2493"/>
  <Item id="2494" value="UserId=2494"/>
  <Item id="2495" value="UserId=2495"/>
  <Item id="2496" value="UserId=2496"/>
  <Item id="2497" value="UserId=2497"/>
  <Item id="2498" value="UserId=2498"/>
  <Item id="2499" value="UserId=2499"/>
  <Item id="2500" value="UserId=2500"/>
  <Item id="2501" value="UserId=2501"/>
  <Item id="2502" value="UserId=2502"/>
  <Item id="2503" value="UserId=2503"/>
  <Item id="2504" value="UserId=2504"/>
  <Item id="2505" value="UserId=2505"/>
  <Item id="2506" value="UserId=2506"/>
  <Item id="2507" value="UserId=2507"/>
  <Item id="2508" value="UserId=2508"/>
  <Item id="2509" value="UserId=2509"/>
  <Item id="2510" value="UserId=2510"/>
  <Item id="2511" value="UserId=2511"/>
  <Item id="2512" value="UserId=2512"/>
  <Item id="2513" value="UserId=2513"/>
  <Item id="2514" value="UserId=2514"/>
  <Item id="2515" value="UserId=2515"/>
  <Item id="2516" value="UserId=2516"/>
  <Item id="2517" value="UserId=2517"/>
  <Item id="2518" value="UserId=2518"/>
  <Item id="2519" value="UserId=2519"/>
  <Item id="2520" value="UserId=2520"/>
  <Item id="2521" value="UserId=2521"/>
  <Item id="2522" value="UserId=2522"/>
  <Item id="2523" value="UserId=2523"/>
  <Item id="2524" value="UserId=2524"/>
  <Item id="2525" value="UserId=2525"/>
  <Item id="2526" value="UserId=2526"/>
  <Item id="2527" value="UserId=2527"/>
  <Item id="2528" value="UserId=2528"/>
  <Item id="2529" value="UserId=2529"/>
  <Item id="2530" value="UserId=2530"/>
